svm_type c_svc
kernel_type rbf
gamma 8
nr_class 4
total_sv 457
rho 0.555096 -0.12334 0.10978 0.0290212 0.0089727 0.0638495
label 2 3 0 1
nr_sv 111 106 143 97
SV
32 32 0 1:0.372175 2:0.666127 
32 32 0 1:0.29874 2:0.426098 
32 0 0 1:0.877399 2:0.949769 
0 32 22.57188877591167 1:0.133679 2:0.744215 
32 11.96984064602292 11.88808680008887 1:-0.333374 2:-0.247102 
0 32 32 1:0.220316 2:-0.0841045 
0 32 0 1:0.376823 2:0.448837 
0 32 32 1:-0.65228 2:0.348948 
32 32 21.55138283484019 1:0.400242 2:0.841384 
17.84574576240359 0 0 1:0.381729 2:0.383381 
0 32 32 1:-0.648868 2:0.247097 
32 0 0 1:0.355761 2:-0.297021 
32 21.96711503632954 0 1:0.341154 2:0.849941 
0 32 0 1:0.184909 2:0.732013 
0 32 32 1:-0.651925 2:0.246244 
32 0 0 1:0.324283 2:0.841964 
32 0 32 1:-0.2616 2:-0.308006 
12.24317209076502 0 0 1:0.978516 2:0.937407 
32 0 3.528684092333554 1:0.789229 2:0.91973 
8.359322990394844 3.853745397622224 0 1:-0.128439 2:-0.342027 
32 32 32 1:-0.553024 2:0.440861 
32 0 0 1:0.247043 2:0.716644 
32 32 17.40995523142347 1:-0.255454 2:0.369502 
32 0 32 1:-0.305173 2:-0.27097 
32 32 0 1:-0.335538 2:0.282458 
32 32 32 1:0.101037 2:0.115623 
0 32 32 1:-0.65405 2:0.416421 
32 0 0 1:0.185049 2:0.765363 
32 32 32 1:-0.343277 2:0.602233 
32 32 13.94847009727198 1:-0.342037 2:0.603232 
32 32 32 1:-0.34463 2:0.602137 
0 32 32 1:-0.667625 2:0.41838 
32 32 2.678710288641051 1:-0.256105 2:0.232943 
0 32 32 1:0.0457794 2:0.621037 
0 32 32 1:-0.62306 2:0.177095 
32 32 0 1:-0.315122 2:0.579307 
32 32 0 1:-0.315025 2:0.610209 
32 0 32 1:0.738247 2:0.517117 
32 32 16.15447151330475 1:0.380861 2:0.62773 
0 0.2559134942878663 0 1:0.236522 2:0.712987 
11.30554727622669 32 32 1:-0.0032057 2:0.291592 
0.5457678427993046 32 32 1:0.153499 2:-0.0572678 
0 32 0 1:0.138348 2:0.748749 
32 1.432893784156749 32 1:0.732676 2:-0.92879 
32 0 0 1:0.804832 2:0.933843 
32 32 0 1:-0.266055 2:0.763877 
8.501661205557694 0 0 1:0.132585 2:0.788601 
32 32 0 1:-0.346916 2:0.301864 
20.20333076492604 0 0 1:0.882974 2:0.955341 
32 32 0 1:-0.285836 2:0.49847 
32 32 0 1:-0.256723 2:0.361282 
32 32 11.00467968860244 1:-0.343932 2:0.292629 
32 32 32 1:-0.346752 2:0.642673 
0 32 32 1:-0.648582 2:0.286988 
32 0 32 1:-0.235107 2:-0.305407 
32 0 0 1:0.332787 2:0.851266 
28.69720582277949 0 0 1:0.353493 2:-0.288084 
32 0 0 1:0.305553 2:0.821011 
32 0 32 1:-0.259794 2:-0.305384 
32 0 1.870060793436527 1:0.709185 2:-0.962613 
13.56709385847207 0 0 1:0.842843 2:0.0771372 
0 32 32 1:-0.780146 2:0.43166 
32 0 0 1:0.957622 2:0.956632 
32 32 32 1:-0.664173 2:0.50288 
0 32 32 1:-0.654885 2:0.312966 
0 32 32 1:-0.689495 2:0.346046 
32 32 0 1:-0.336381 2:-0.131808 
0 3.098902017704475 0 1:0.285803 2:-0.29388 
32 32 0 1:-0.277779 2:0.744912 
32 4.054673022869565 32 1:-0.251252 2:0.194054 
0 32 7.878807312111749 1:0.212244 2:-0.1088 
32 32 0 1:0.390422 2:0.862008 
32 32 32 1:-0.355485 2:0.749633 
7.759859628183524 32 32 1:0.129667 2:0.554539 
0 32 32 1:-0.676736 2:0.308787 
32 0 4.798984953601551 1:-0.260711 2:-0.27405 
0 32 32 1:-0.657305 2:0.323748 
32 32 32 1:0.175529 2:0.47587 
0 32 32 1:-0.555588 2:0.0542298 
32 11.88911389263389 0 1:-0.263329 2:0.587743 
32 32 0 1:-0.343717 2:-0.127709 
32 0 0 1:0.191939 2:0.769484 
32 0 0 1:0.244029 2:0.748788 
0 32 32 1:-0.651761 2:0.423213 
32 2.824916451164376 6.723224940933925 1:0.799066 2:0.120629 
3.446530894989797 0 0 1:0.200213 2:0.74058 
32 32 32 1:0.428256 2:0.821576 
32 0 0 1:0.977424 2:0.939915 
32 0 0 1:0.198138 2:0.770903 
0 32 0 1:0.135465 2:0.743995 
0 32 32 1:-0.654551 2:0.313436 
32 18.9365981812922 0 1:-0.257804 2:0.548924 
32 0 10.67778015656067 1:0.370064 2:0.28132 
32 0 0 1:-0.254446 2:0.549998 
32 2.044952987462936 0 1:0.795099 2:0.967378 
32 0 0 1:0.24952 2:0.717399 
0 4.604721374216079 0 1:0.151205 2:0.759609 
26.42231807429244 32 0 1:0.37423 2:0.625435 
11.17714740750841 0 0 1:0.321202 2:-0.324789 
32 32 0 1:-0.340225 2:-0.14156 
32 32 32 1:0.550252 2:0.57956 
32 32 32 1:0.458786 2:0.649986 
32 5.243450406793722 32 1:0.713811 2:0.611852 
32 32 17.77471239935014 1:-0.338591 2:-0.113105 
32 32 0 1:-0.276372 2:0.235929 
32 0 0 1:0.275384 2:0.850529 
32 23.23238479378066 0 1:0.30136 2:0.425776 
17.99200512510328 0 26.49089467575911 1:0.362425 2:0.274281 
32 32 32 1:-0.123033 2:-0.697791 
14.26592329023656 32 32 1:-0.768639 2:0.462162 
21.64178304790869 0 0 1:0.886192 2:0.930095 
-32 0 0 1:-0.293151 2:-0.282865 
-32 32 0 1:0.254485 2:0.719273 
-0 27.44583751104068 32 1:0.525937 2:-0.629822 
-32 32 32 1:-0.342327 2:0.602821 
-32 32 0 1:0.264094 2:0.482889 
-32 32 32 1:0.0464859 2:0.600997 
-32 32 0 1:0.362923 2:0.744675 
-32 0 9.43904336416114 1:-0.221265 2:-0.346338 
-32 32 0 1:-0.329918 2:0.292874 
-32 0 0 1:-0.292108 2:-0.155327 
-32 0 0 1:0.799353 2:0.931163 
-32 7.254020370660768 0 1:-0.315561 2:-0.118641 
-32 0 32 1:-0.273816 2:-0.293195 
-0 32 32 1:-0.211395 2:-0.496428 
-32 32 32 1:-0.248839 2:0.356529 
-29.5769623342784 32 32 1:-0.135472 2:-0.708603 
-32 0 0 1:0.368829 2:-0.311975 
-32 32 22.46215381304257 1:-0.318994 2:-0.0858439 
-32 0 0 1:-0.32877 2:-0.256029 
-32 32 32 1:0.386919 2:0.833698 
-6.6821807533584 0 0 1:-0.267361 2:0.62282 
-32 32 0 1:-0.279618 2:0.493192 
-32 26.46259765470511 0 1:-0.317432 2:0.619316 
-0 32 0 1:-0.340545 2:0.279864 
-32 32 0 1:-0.327257 2:0.305819 
-32 32 0 1:-0.321094 2:0.278572 
-0 0 32 1:0.633508 2:0.643969 
-32 8.357253722712718 3.444527205311119 1:-0.277085 2:0.487593 
-32 32 0 1:-0.314828 2:0.579388 
-32 32 32 1:-0.673468 2:0.499874 
-0 11.61106986196138 32 1:-0.223016 2:-0.454666 
-32 32 0 1:-0.32943 2:-0.132171 
-29.62745854766576 0 27.90257059571685 1:0.767803 2:-0.964346 
-32 0 0 1:0.246504 2:0.75224 
-0 13.31650950552665 0 1:-0.305046 2:0.23045 
-16.74435864822318 4.967697900151038 32 1:0.554583 2:0.211762 
-9.616188849124404 32 0 1:0.331531 2:0.842806 
-0 0 32 1:0.727608 2:0.513782 
-6.645465340121405 0 32 1:-0.19886 2:-0.471318 
-0 0 32 1:0.642216 2:0.112145 
-32 32 17.50460615575638 1:0.364943 2:0.744672 
-18.99946242493674 0 0 1:0.836053 2:0.532319 
-32 0 0 1:0.88503 2:0.931974 
-26.23846033452759 32 11.67871364599944 1:-0.345252 2:0.291006 
-32 0 0 1:0.264608 2:0.831283 
-5.58828135536436 0 9.725230723209343 1:0.39116 2:-0.357323 
-32 32 32 1:0.550636 2:0.61948 
-32 0 0 1:-0.253956 2:0.549511 
-0 32 32 1:-0.140327 2:-0.671945 
-32 0 0 1:0.320234 2:0.837404 
-29.90662752188009 0 0 1:-0.287475 2:0.211788 
-32 32 32 1:0.0890443 2:0.0976518 
-2.332997676783084 0 31.55307058964046 1:-0.322143 2:-0.277658 
-32 32 22.47036785344227 1:0.376574 2:0.667353 
-32 32 18.46707339036193 1:0.229427 2:0.393451 
-32 0 0 1:0.271118 2:0.848371 
-0 0 32 1:-0.31833 2:-0.284006 
-0 0 9.022407295526003 1:0.736633 2:0.516557 
-0 0 9.346635092252857 1:0.728262 2:0.574443 
-32 0 0 1:0.32532 2:0.841102 
-32 32 0 1:0.246361 2:0.7167 
-32 0.1353075845583461 32 1:0.629022 2:0.601917 
-32 32 32 1:0.385582 2:0.628739 
-32 0 29.25252542385602 1:-0.284989 2:0.22437 
-0 0 32 1:0.733687 2:0.515577 
-0 32 32 1:-0.354417 2:0.707176 
-28.06652489287541 32 0 1:-0.299893 2:0.777407 
-32 0 0 1:0.894031 2:1 
-0 0 11.93443466572521 1:0.281313 2:0.858381 
-32 0 0 1:0.27262 2:0.846958 
-3.942188967620086 0 32 1:0.556041 2:0.0619361 
-32 0 0 1:0.891841 2:0.933325 
-24.79495887095811 0 0 1:0.6914 2:-0.954159 
-32 0 0 1:0.802348 2:0.931622 
-32 31.31669869928244 31.52198046898916 1:0.376655 2:0.39696 
-32 0 0 1:0.970055 2:0.959241 
-32 0 0 1:0.974734 2:0.94065 
-0 0 32 1:0.624597 2:0.056586 
-23.60252640583958 0 32 1:0.646134 2:0.549981 
-0 0 0.03262211037111871 1:0.631543 2:0.0415595 
-10.65038382664317 0 3.863973157318314 1:0.659951 2:-0.910131 
-32 13.28132757967473 0 1:0.34491 2:-0.326399 
-5.489975370219338 2.632919584329282 3.030742719111781 1:-0.359881 2:0.932045 
-32 0 0 1:0.308118 2:0.369789 
-0 0 32 1:0.549195 2:-0.604991 
-32 32 0 1:-0.220876 2:0.711736 
-12.80680451079288 32 32 1:0.0456457 2:0.091859 
-32 15.47207265715342 0 1:0.264552 2:0.389393 
-32 32 32 1:-0.669946 2:0.499805 
-32 10.05583394821096 0 1:-0.330375 2:-0.267479 
-32 32 0 1:-0.320827 2:0.299042 
-8.012835903954999 16.15746697572679 32 1:0.626892 2:0.667782 
-32 11.23109669897355 3.041495753443364 1:0.683866 2:0.905269 
-32 32 32 1:-0.344695 2:0.629075 
-32 5.959220784167815 0 1:0.23895 2:0.748554 
-19.01270730812146 0 0 1:-0.317206 2:0.620062 
-32 32 0.902305873013867 1:-0.34025 2:0.603092 
-31.64343857258677 32 32 1:-0.35806 2:0.679467 
-32 0.9740880029774998 1.887275685508701 1:0.777593 2:0.170724 
-19.9584927389525 0 0 1:-0.257636 2:0.739597 
-32 32 0 1:-0.319477 2:0.57797 
-32 0 0 1:0.268629 2:0.839672 
-12.09914275118709 0 0 1:0.825833 2:-0.0791619 
-32 0 32 1:-0.272669 2:-0.292491 
-1.935991176532597 0 0 1:-0.302501 2:-0.109316 
-32 29.93563141420522 0 1:0.330063 2:0.841976 
-32 -32 0 1:-0.219199 2:0.710983 
-32 -32 0 1:0.205477 2:0.43362 
-0 -0 26.86555730101333 1:-0.599069 2:0.101609 
-32 -32 0 1:0.405006 2:0.647952 
-32 -0 20.58779538419494 1:-0.63615 2:0.24856 
-0 -0 32 1:-0.437919 2:0.660318 
-0 -0 32 1:-0.659262 2:0.419929 
-32 -32 0 1:0.422629 2:0.843608 
-32 -0 17.83670081420365 1:-0.703389 2:0.40751 
-32 -32 2.575313502105057 1:-0.368396 2:0.621905 
-32 -0 32 1:-0.666766 2:0.284113 
-11.0839269862221 -0 0 1:-0.405347 2:0.590053 
-32 -0 32 1:-0.641081 2:0.247376 
-32 -32 0 1:-0.363893 2:0.362437 
-0 -0 32 1:0.115455 2:0.551867 
-0 -0 32 1:0.466008 2:0.646449 
-0 -0 18.1151677538531 1:-0.946207 2:0.600609 
-32 -32 23.26455597850933 1:0.475222 2:0.371963 
-32 -32 0 1:0.19339 2:0.736273 
-32 -0 0 1:-0.00561754 2:0.659508 
-32 -32 9.753633667676981 1:0.223724 2:0.414352 
-32 -32 0 1:-0.253892 2:0.362067 
-18.8375865499163 -0 32 1:-0.68992 2:0.397799 
-0 -0.04733365129679384 32 1:-0.719143 2:0.522876 
-0 -0 32 1:-0.690956 2:0.579534 
-17.77292683538738 -0 0 1:-0.373214 2:-0.0638769 
-0 -0 31.79781856033981 1:-0.68958 2:0.364924 
-32 -32 0 1:-0.372885 2:0.621624 
-32 -32 5.426749680744476 1:-0.267159 2:0.194359 
-32 -0 0 1:-0.708699 2:0.407602 
-32 -32 32 1:-0.243386 2:0.343877 
-0 -0 32 1:-0.659689 2:0.364171 
-2.315185534669234 -0 32 1:-0.622265 2:0.177392 
-0 -0 32 1:-0.69622 2:0.616834 
-0 -0 13.29038069413548 1:-0.684851 2:0.308021 
-0 -0 32 1:-0.676265 2:0.421702 
-32 -32 0 1:-0.370167 2:0.622695 
-32 -0 22.04532137250649 1:-0.36781 2:-0.102715 
-32 -0 32 1:-0.647955 2:0.238086 
-0 -32 32 1:-0.225241 2:-0.518286 
-21.0281270133447 -32 0 1:-0.413145 2:0.628322 
-0 -0 32 1:-0.704138 2:0.528655 
-32 -32 0 1:-0.412105 2:0.623767 
-0 -32 0 1:-0.771098 2:0.49091 
-31.17012749721858 -0 29.06146055975065 1:-0.701533 2:0.423892 
-0 -0 32 1:-0.707122 2:0.527794 
-0 -0 9.10841208587312 1:-0.878491 2:0.451908 
-0 -0 9.037636510843431 1:-0.443908 2:0.659587 
-0 -0 32 1:-0.709365 2:0.526705 
-0 -0 32 1:-0.687498 2:0.363719 
-0 -0 32 1:-0.688846 2:0.306756 
-0 -0 7.742545939950628 1:0.129769 2:0.52349 
-12.20942529319013 -0 0 1:-0.648303 2:0.286863 
-18.71455154275291 -0 7.146348994324641 1:0.105358 2:0.59098 
-0 -0 32 1:-0.690209 2:0.298275 
-0 -0 32 1:0.0823389 2:0.544692 
-0 -0 28.6898505545131 1:-0.695471 2:0.370648 
-32 -32 0 1:0.378674 2:0.626637 
-32 -32 0 1:-0.364417 2:-0.0978676 
-0 -1.67945869894496 32 1:-0.789258 2:0.504136 
-0 -0 32 1:-0.997315 2:0.590722 
-0 -0 6.147177580911177 1:-0.694428 2:0.43044 
-32 -7.375828577790813 32 1:0.188022 2:-0.0884368 
-0 -0.6265009915013392 0 1:-0.415074 2:0.622571 
-32 -0 15.16105580733146 1:0.0019357 2:0.273778 
-2.143265469509214 -0 0 1:-0.99876 2:0.632104 
-0 -0 32 1:-0.969195 2:0.585608 
-32 -32 0 1:0.242027 2:0.714558 
-0 -0 32 1:-0.612576 2:0.18072 
-0 -0 18.48238260484912 1:-0.990973 2:0.619484 
-32 -9.505132288810382 0 1:0.464376 2:0.605178 
-13.89971752770445 -16.83650064905081 25.84245601069984 1:0.0426679 2:0.120703 
-0 -0 32 1:-0.681555 2:0.420164 
-32 -1.970702038570115 18.95821714658761 1:0.131564 2:0.790826 
-22.06813729898734 -32 32 1:-0.240137 2:-0.492568 
-32 -32 32 1:-0.380589 2:0.658557 
-32 -32 0 1:0.381937 2:0.835013 
-17.72208733952395 -0 0 1:-0.671216 2:0.319799 
-32 -0 32 1:-0.695892 2:0.407897 
-32 -32 0 1:-0.366479 2:0.365655 
-0 -0 32 1:-0.945752 2:0.600619 
-0 -0 32 1:-0.685796 2:0.308166 
-32 -32 0 1:0.140497 2:0.75416 
-31.55938346709614 -31.05329062391258 0 1:-0.383398 2:0.35043 
-0 -0 32 1:-0.613323 2:0.180531 
-0 -3.006038722988514 19.20613813878441 1:0.454768 2:0.689337 
-0 -32 0 1:0.0487033 2:0.097026 
-32 -32 32 1:-0.361001 2:-0.110081 
-0 -6.261061767194621 32 1:-0.148331 2:-0.723366 
-32 -32 12.83262141215787 1:-0.254522 2:0.759865 
-0 -0 7.927413318296638 1:-0.673219 2:0.569411 
-32 -0 32 1:-0.647474 2:0.241766 
-32 -0 32 1:-0.646146 2:0.246479 
-0 -0 32 1:-0.686367 2:0.425582 
-22.05274749102824 -32 11.81762519158395 1:0.430697 2:0.818769 
-0 -0 30.00750811940549 1:-0.609072 2:0.36459 
-32 -0 4.525577115339978 1:0.170498 2:-0.0888885 
-0 -0 9.387946289658997 1:-0.703742 2:0.527972 
-0 -0 32 1:-0.655755 2:0.414941 
-10.33033582786689 -0 0 1:-0.388905 2:-0.0969512 
-0 -32 0 1:0.451917 2:0.683232 
-32 -0 0 1:-0.715318 2:0.435485 
-32 -32 0 1:0.449935 2:0.60146 
-31.8130772243134 -0 0 1:-0.716847 2:0.441043 
-32 -32 0 1:-0.366042 2:0.364652 
-32 -28.24379002257222 32 1:0.426669 2:0.846515 
-0 -0 32 1:-0.676101 2:0.42066 
-32 -32 32 1:-0.369804 2:0.346457 
-0 -0 32 1:-0.688073 2:0.295264 
-12.36312633866685 -0 0 1:-0.706022 2:0.401016 
-32 -9.22736440325075 0 1:0.167899 2:-0.0896186 
-0 -23.86009622510937 23.31619444811345 1:-0.126779 2:-0.726086 
-15.33779027709517 -10.72860852717432 32 1:0.095589 2:0.138589 
-0 -0 1.973890504811004 1:-0.697959 2:0.429497 
-0 -0 32 1:0.0660043 2:0.581615 
-32 -32 32 1:-0.263893 2:0.587752 
-32 -0 0 1:-0.710875 2:0.430044 
-13.28642550966147 -0 0 1:-0.109739 2:-0.782618 
-0 -0 32 1:-0.689566 2:0.39819 
-0 -23.6773956778489 0 1:-0.369325 2:0.0205774 
-28.0840792505937 -0 0 1:0.466952 2:0.60594 
-28.61516813165282 -0 0 1:0.122668 2:0.561498 
-0 -0 8.430602178022642 1:-0.910717 2:0.503094 
-0 -0 0.1134364122752812 1:-0.795536 2:0.505445 
-0 -0 3.333229963288288 1:0.0524181 2:0.633202 
-0 -2.517747214906332 32 1:-0.437719 2:0.660963 
-32 -0 0 1:-0.634411 2:0.249437 
-0 -0 32 1:-0.705426 2:0.528264 
-0 -5.98902477169954 0 1:-0.733503 2:0.468125 
-0 -0 32 1:-0.692006 2:0.579527 
-0 -0 32 1:0.0482574 2:0.122314 
-1.803942081848628 -0 0 1:0.10181 2:-0.608801 
-7.048272128032816 -0 32 1:0.159926 2:-0.066463 
-32 -32 0 1:-0.256795 2:0.366623 
-32 -32 0 1:0.163091 2:0.543742 
-2.489089696621619 -32 32 1:0.468785 2:-0.58093 
-0 -0 32 1:-0.923953 2:0.590963 
-0 -0 32 1:-0.995203 2:0.612913 
-0 -0 32 1:-0.912079 2:0.502239 
-32 -0 0 1:-0.369411 2:-0.0862487 
-9.660719173433151 -21.96077560339608 0 1:-0.0851981 2:-0.715676 
-32 -32 0 1:-0.244807 2:0.730507 
-0 -0 4.567295841255969 1:-0.659579 2:0.420542 
-32 -32 -32 1:0.328342 2:0.861068 
-32 -32 -32 1:-0.269555 2:0.220228 
-32 -32 -6.434040199178642 1:-0.248116 2:-0.293939 
-0 -0 -32 1:-0.696274 2:0.402059 
-32 -32 -0 1:-0.270523 2:-0.30353 
-0 -32 -32 1:-0.165045 2:-0.677808 
-5.449348671855709 -32 -0 1:0.647833 2:0.148688 
-31.03129196838858 -0 -32 1:-0.77228 2:0.461016 
-32 -0 -32 1:-0.677914 2:0.335752 
-32 -0 -32 1:-0.641635 2:0.418917 
-0 -0 -32 1:-0.946476 2:0.600047 
-0 -32 -0.7988378874322513 1:0.531822 2:-0.59079 
-32 -32 -20.19942483517507 1:-0.281962 2:-0.279562 
-25.33293249713843 -0 -32 1:-0.643774 2:0.238947 
-32 -32 -32 1:-0.376911 2:0.660492 
-32 -32 -25.64288865398649 1:0.539809 2:0.766792 
-32 -13.03527497158521 -32 1:-0.551798 2:0.488643 
-32 -32 -32 1:0.245516 2:0.71569 
-0 -0 -32 1:-0.687832 2:0.296893 
-0 -0 -32 1:-0.687989 2:0.535148 
-32 -0 -32 1:-0.689095 2:0.368377 
-0 -0 -32 1:-0.697365 2:0.367599 
-32 -0 -32 1:-0.6446 2:0.28834 
-32 -32 -0 1:0.820119 2:0.540678 
-21.01467336786018 -0 -32 1:-0.619333 2:0.177723 
-32 -0 -32 1:-0.609747 2:0.178389 
-32 -0 -32 1:0.202394 2:-0.0352443 
-0 -4.296148789292985 -32 1:-0.695092 2:0.430571 
-0 -0 -32 1:-0.647432 2:0.241052 
-0 -32 -0 1:0.602542 2:0.0860078 
-0 -0 -32 1:-0.693256 2:0.579042 
-0 -1.712662488334302 -0 1:-0.250373 2:-0.477077 
-0 -9.478222102996602 -0 1:0.521882 2:0.114052 
-0 -0 -32 1:-0.689275 2:0.295795 
-0.7832167094285476 -17.18236370387368 -1.06212652583221 1:0.621147 2:0.250459 
-4.298381955669097 -32 -0 1:0.731596 2:0.555115 
-0 -32 -0 1:0.511892 2:-0.604867 
-0 -32 -0 1:0.635978 2:0.548736 
-32 -0 -32 1:-0.633811 2:0.320151 
-29.37283253054898 -32 -32 1:0.0420256 2:0.116257 
-32 -32 -32 1:-0.381464 2:-0.106531 
-32 -32 -32 1:-0.384941 2:0.700116 
-0 -0 -32 1:-0.68973 2:0.298316 
-0 -0 -32 1:-0.684691 2:0.536533 
-32 -32 -0 1:0.755299 2:-0.948481 
-32 -32 -32 1:-0.541749 2:0.483509 
-32 -32 -32 1:-0.253546 2:0.359893 
-0 -32 -0 1:0.64497 2:0.551146 
-2.026557508458333 -0 -32 1:-0.665606 2:0.419422 
-0 -32 -11.30035073117292 1:-0.249689 2:-0.477589 
-12.91975585123524 -32 -0 1:-0.252611 2:-0.450683 
-32 -0 -32 1:-0.673236 2:0.321455 
-0 -32 -0 1:0.546483 2:0.629259 
-23.2529828885835 -11.44327605283699 -32 1:0.00391191 2:0.603151 
-32 -32 -32 1:-0.259961 2:0.584362 
-32 -0 -32 1:0.0946377 2:0.52113 
-32 -0 -32 1:-0.689704 2:0.367854 
-0 -6.063821025007102 -32 1:-0.692983 2:0.430947 
-32 -0 -32 1:-0.683206 2:0.39904 
-0 -0 -32 1:-0.960977 2:0.595827 
-0 -0 -32 1:-0.697073 2:0.616482 
-32 -0 -32 1:-0.687765 2:0.360617 
-0 -16.59560284734481 -32 1:-0.779326 2:0.529903 
-32 -0 -32 1:-0.628957 2:0.315477 
-32 -32 -32 1:0.16329 2:0.488923 
-0 -32 -32 1:-0.222673 2:-0.519972 
-24.67691331645321 -7.997836775507449 -32 1:0.0894115 2:0.538802 
-0 -16.7635550669821 -0 1:0.551298 2:0.630644 
-0 -0 -32 1:-0.679914 2:0.497099 
-0 -0 -32 1:-0.696272 2:0.616833 
-0 -0 -32 1:-0.996459 2:0.590065 
-32 -32 -0 1:-0.243913 2:-0.300514 
-32 -0 -32 1:-0.690471 2:0.376035 
-32 -24.61137132264678 -0 1:0.558198 2:0.581454 
-0 -0 -32 1:-0.696947 2:0.57788 
-19.33487948908052 -0 -32 1:-0.781303 2:0.432967 
-0 -0 -32 1:-0.621196 2:0.178683 
-28.48264233631113 -31.04936238178725 -32 1:-0.153194 2:-0.721071 
-0 -32 -0 1:0.581707 2:0.0464256 
-0 -20.44915897766383 -32 1:0.0463578 2:0.115341 
-14.08862219984784 -32 -6.477083126822893 1:0.544944 2:0.628879 
-0 -0 -32 1:-0.995827 2:0.590838 
-0 -0 -32 1:-0.622412 2:0.17812 
-9.821829631282824 -4.065110978263667 -0 1:0.558151 2:0.581647 
-32 -32 -32 1:-0.380641 2:0.701677 
-0 -0 -32 1:-0.945649 2:0.575196 
-0 -0 -32 1:-0.991243 2:0.594031 
-32 -11.05632681199937 -32 1:0.202098 2:-0.0945522 
-32 -5.76091922400557 -32 1:0.0954929 2:0.131772 
-32 -32 -32 1:0.53856 2:0.616779 
-32 -0 -32 1:-0.598658 2:0.102797 
-0 -0 -32 1:-0.691554 2:0.430866 
-3.86223696516108 -5.882071921478659 -32 1:0.480377 2:-0.611233 
-5.201696666868463 -0 -32 1:-0.894604 2:0.569321 
-0 -7.040670140151515 -32 1:-0.778438 2:0.487576 
-0 -0 -32 1:-0.692135 2:0.367157 
-32 -32 -16.46126547831096 1:0.415991 2:0.273087 
