svm_type c_svc
kernel_type rbf
gamma 8
nr_class 4
total_sv 422
rho 1.85692 -1.99345 1.31293 2.56954 0.796653 1.76479
label 2 3 0 1
nr_sv 99 95 131 97
SV
512 0 512 1:-0.235107 2:-0.307917 
0 512 512 1:-0.648582 2:0.282339 
0 512 0 1:0.138348 2:0.742431 
0 0 39.41057721275997 1:-0.128439 2:-0.344404 
512 512 0 1:-0.315122 2:0.573601 
0 512 512 1:-0.65405 2:0.411304 
512 0 41.82645765420333 1:-0.251252 2:0.189741 
363.8031560833998 0 0 1:0.198138 2:0.764505 
512 512 512 1:0.129667 2:0.548923 
512 0 512 1:0.637246 2:0.598888 
153.6917959794395 0 0 1:0.789229 2:0.912794 
512 512 89.68119967811285 1:-0.328578 2:0.682099 
512 2.793385371754025 0 1:-0.336381 2:-0.134945 
0 438.5548914494138 0 1:0.376823 2:0.443603 
0 512 512 1:-0.62306 2:0.172842 
182.1299892115165 44.29065870022132 0 1:0.236522 2:0.706799 
0 0 512 1:0.219841 2:-0.0714774 
512 0 13.73535851504764 1:-0.263329 2:0.582007 
0 512 0 1:0.37423 2:0.619563 
512 0 512 1:-0.254446 2:0.544398 
0 512 0 1:0.132585 2:0.782139 
190.5068651497589 512 512 1:-0.768639 2:0.45688 
512 0 512 1:0.738247 2:0.511636 
0 0 182.4875154507805 1:0.795099 2:0.96027 
512 454.4456484980784 512 1:0.550252 2:0.573854 
0 0 109.9669764132162 1:0.220316 2:-0.0874134 
512 0 220.5010281408038 1:-0.256105 2:0.228489 
0 512 512 1:-0.667625 2:0.413256 
0 24.09281753295468 0 1:0.151205 2:0.753252 
0 512 512 1:-0.556828 2:0.0503267 
512 0 223.1107451488385 1:0.713811 2:0.606028 
512 0 0 1:0.321202 2:-0.327228 
512 512 0 1:0.247043 2:0.710442 
512 505.2729822673769 0 1:0.29874 2:0.420946 
512 512 512 1:-0.346752 2:0.636738 
287.9189889778013 0 407.0828841181931 1:0.370064 2:0.27669 
512 0 0 1:0.244029 2:0.74247 
312.7626343874514 0 0 1:0.313847 2:-0.327995 
0 512 512 1:-0.65228 2:0.344075 
0 512 0 1:0.135465 2:0.737694 
360.2555437250646 0 0 1:0.978516 2:0.930408 
0 512 0 1:-0.343717 2:-0.13086 
512 0 0 1:0.332787 2:0.844578 
512 0 2.846128084371374 1:0.709185 2:-0.962748 
0 512 512 1:-0.657305 2:0.318966 
512 0 31.58842242366629 1:0.355761 2:-0.299561 
512 512 0 1:0.24952 2:0.711194 
512 0 235.9975956295983 1:0.275384 2:0.843843 
512 0 512 1:-0.259794 2:-0.307894 
512 0 0 1:0.324283 2:0.835309 
512 165.5807131334905 0 1:0.341154 2:0.843258 
512 512 154.8901228237605 1:-0.256723 2:0.356364 
512 512 0 1:-0.343932 2:0.287959 
512 0 419.2308583405189 1:-0.260711 2:-0.276672 
0 512 0 1:0.133679 2:0.737913 
512 508.4268011917745 441.6993920338746 1:-0.276372 2:0.231464 
512 0 163.0648936879617 1:-0.333374 2:-0.249822 
487.1698862268159 512 512 1:-0.464252 2:0.565905 
512 512 0 1:-0.335538 2:0.277825 
512 512 53.16342448119455 1:0.175529 2:0.470538 
340.677976213863 0 0 1:0.381729 2:0.378383 
512 512 0 1:0.372175 2:0.660108 
512 0.006204983027937214 178.1373806578561 1:0.732676 2:-0.929047 
110.5897146644541 0 0 1:0.889775 2:0.923174 
512 0 512 1:-0.305173 2:-0.273604 
0 512 512 1:-0.654885 2:0.308222 
512 24.48622638105266 512 1:-0.355485 2:0.743312 
512 512 512 1:0.101037 2:0.111593 
348.0197272973572 0 0 1:0.877399 2:0.942725 
512 512 512 1:0.428256 2:0.814995 
512 512 0 1:-0.342037 2:0.597439 
0 512 512 1:-0.654551 2:0.308691 
181.7532839710732 0 0 1:0.353493 2:-0.290656 
0 512 512 1:-0.689495 2:0.341183 
476.0616513457641 0 0 1:-0.340225 2:-0.144662 
0 512 512 1:-0.651925 2:0.241742 
2.641658831485219 512 328.1401433013093 1:-0.553024 2:0.435656 
512 512 0 1:-0.277779 2:0.738608 
20.21757605213838 512 411.3240488642956 1:0.153499 2:-0.0606737 
0 512 512 1:-0.780146 2:0.426488 
0 512 0 1:0.212244 2:-0.11202 
0 512 512 1:-0.676736 2:0.304059 
512 512 295.2823700473683 1:-0.338591 2:-0.116309 
512 234.6071083852857 512 1:-0.257177 2:0.54347 
512 512 512 1:-0.664173 2:0.497451 
512 23.13637201266539 0 1:-0.315025 2:0.604392 
302.9985255422002 7.566688022152416 13.39883106729861 1:0.799066 2:0.116581 
512 512 512 1:0.458786 2:0.644025 
512 512 0 1:-0.346916 2:0.297161 
512 0 0 1:0.886192 2:0.923122 
512 512 0 1:0.400242 2:0.834732 
512 0 0 1:0.30136 2:0.420625 
95.44946334781325 512 89.40418454926045 1:0.390422 2:0.855281 
0 0 298.5742423640621 1:0.184909 2:0.725756 
0 512 224.1945788950158 1:-0.0032057 2:0.286925 
390.4683582457461 512 0 1:0.380861 2:0.62185 
512 512 0 1:-0.266055 2:0.757505 
512 0 0 1:0.305553 2:0.814433 
512 512 0 1:-0.343277 2:0.596444 
-144.5589226617209 12.52555593909198 0 1:-0.330375 2:-0.270126 
-512 0 0 1:0.254485 2:0.713062 
-27.13755425609844 512 332.4937968958581 1:0.229427 2:0.388417 
-38.19489002332664 0 0 1:0.825833 2:-0.0824886 
-512 512 479.0950942705027 1:0.386919 2:0.827074 
-512 236.0072250220574 512 1:0.550636 2:0.613629 
-0 214.0987687363741 512 1:0.491956 2:-0.624159 
-512 0 0 1:0.330063 2:0.835321 
-413.0673314946549 0 0 1:0.728262 2:0.568754 
-0 0 512 1:0.642216 2:0.108127 
-313.9999993220951 0 0 1:0.32532 2:0.83445 
-0 0 286.0289444169744 1:-0.253956 2:0.543913 
-512 512 0 1:-0.320827 2:0.294349 
-249.8747906022683 0 0 1:0.362923 2:0.738372 
-512 512 512 1:0.0464859 2:0.595213 
-466.9707626328797 0 391.403500518263 1:-0.221265 2:-0.348699 
-0 0 49.58156147424849 1:-0.297319 2:0.215312 
-485.6038914810741 0 470.1896349739599 1:0.767803 2:-0.964474 
-512 0 0 1:0.264552 2:0.384374 
-21.57844925218368 493.542219091021 0 1:-0.220876 2:0.705552 
-512 7.104042003323467 0 1:0.799353 2:0.924186 
-134.7557396633152 0 512 1:0.646781 2:0.545545 
-0 0 311.8759069825608 1:0.39116 2:-0.359645 
-371.0483689122009 512 512 1:0.096305 2:0.522722 
-512 512 421.4569500747185 1:-0.342327 2:0.59703 
-512 0 0 1:0.325063 2:0.839485 
-164.1393794687844 0 512 1:0.629022 2:0.59613 
-285.8327719120552 0 70.30274045971821 1:0.777593 2:0.166495 
-0 0 77.46701173077443 1:-0.31833 2:-0.286593 
-512 512 405.9637999965911 1:0.385582 2:0.622855 
-512 147.9226433720575 0 1:0.322236 2:0.848828 
-0 512 0 1:-0.332128 2:0.310115 
-0 0 512 1:0.549195 2:-0.606418 
-512 0 0 1:-0.32877 2:-0.258717 
-512 0 0 1:-0.315561 2:-0.121825 
-512 512 0 1:0.264094 2:0.477532 
-512 0 512 1:-0.354417 2:0.701009 
-311.5761740381188 0 0 1:-0.292108 2:-0.158378 
-512 230.6444642031807 0 1:0.376655 2:0.391913 
-512 0 0 1:-0.314828 2:0.573682 
-0 53.78609235108898 512 1:0.554583 2:0.207384 
-0 0 512 1:-0.293151 2:-0.285456 
-512 509.2954918101964 0 1:0.364943 2:0.738368 
-436.1274461832075 0 0 1:-0.287475 2:0.20741 
-512 512 512 1:-0.248839 2:0.351629 
-512 0 286.9888150274226 1:-0.277085 2:0.482219 
-512 402.9821187674097 0 1:0.246361 2:0.710498 
-512 0 0 1:-0.321094 2:0.273953 
-233.4278735062999 0 29.87957408084748 1:0.659951 2:-0.910456 
-512 425.8848647552143 0 1:-0.299893 2:0.770986 
-0 479.9706668753234 0 1:-0.329918 2:0.288203 
-319.8747505211469 0 0 1:0.6914 2:-0.954325 
-512 0 0 1:-0.29118 2:0.240019 
-0 217.9537636063909 0 1:-0.140327 2:-0.67313 
-0 0 363.7640797342878 1:0.836053 2:0.526783 
-24.86904145948523 0 0 1:-0.274382 2:0.737198 
-512 0 0 1:0.34491 2:-0.328833 
-0 512 139.1847761616505 1:-0.135472 2:-0.709655 
-512 0 456.2737831451806 1:-0.284989 2:0.219947 
-443.6671895293165 0 0 1:-0.326671 2:0.683579 
-512 0 0 1:0.891841 2:0.926341 
-512 512 0 1:-0.257636 2:0.733312 
-34.13336628011469 0 0 1:-0.279618 2:0.487798 
-512 0 512 1:-0.272669 2:-0.295047 
-512 0 0 1:0.331531 2:0.836149 
-370.7340042809347 0 512 1:-0.273816 2:-0.295749 
-512 0 512 1:0.646134 2:0.544381 
-512 0 0 1:-0.327078 2:-0.253265 
-512 0 359.8709743264776 1:0.264608 2:0.824667 
-51.96407529803121 0 512 1:0.556041 2:0.0580996 
-512 0 0 1:-0.317206 2:0.614209 
-330.6916117033176 0 284.1874179334695 1:0.626892 2:0.661757 
-472.3011859938642 512 0 1:-0.327257 2:0.301102 
-512 0 0 1:0.308118 2:0.36484 
-190.6407121855125 0 0 1:-0.315854 2:0.614073 
-0 227.822714449945 512 1:-0.223016 2:-0.456637 
-512 0 0 1:0.974734 2:0.933639 
-512 137.8084625249113 0 1:-0.319477 2:0.572269 
-495.7676885117471 0 0 1:0.368829 2:-0.314461 
-243.5873723136673 16.04501500738264 0 1:-0.318994 2:-0.0891465 
-54.2782936317597 0 0 1:0.281313 2:0.851668 
-19.22613848831591 512 399.8950430553655 1:0.0456457 2:0.0879144 
-512 512 512 1:-0.669946 2:0.494387 
-326.4115369572069 512 512 1:-0.673468 2:0.494455 
-177.4881178632146 0 0 1:0.818169 2:0.534848 
-512 512 512 1:-0.344695 2:0.62319 
-0 0 282.3076010864727 1:0.624597 2:0.0527688 
-512 512 156.658776083227 1:0.376574 2:0.661329 
-512 100.0194141661226 177.3926455802979 1:0.29281 2:-0.303474 
-512 512 2.131662018504905 1:0.23895 2:0.742237 
-512 0 331.5035323115153 1:-0.32943 2:-0.135306 
-512 512 0 1:-0.34025 2:0.5973 
-512 512 512 1:0.0890443 2:0.0936862 
-25.58736482522307 0 0 1:-0.359881 2:0.925065 
-512 0 0 1:-0.317432 2:0.613466 
-0 -0 512 1:-0.704138 2:0.523132 
-1.505489372485334 -0 45.17154822740302 1:-0.948085 2:0.769927 
-512 -511.760354846493 155.0579887493976 1:0.19339 2:0.730001 
-512 -7.705563647572109 512 1:-0.361001 2:-0.113296 
-315.6876829943595 -0 512 1:-0.789258 2:0.498702 
-0 -0 512 1:-0.760142 2:0.407421 
-512 -512 394.3053460988789 1:0.381937 2:0.828384 
-512 -0 512 1:0.188022 2:-0.0917301 
-512 -512 0 1:-0.219199 2:0.704802 
-343.128354536083 -0 512 1:-0.695892 2:0.40281 
-0 -13.22157386100398 0 1:0.10181 2:-0.610215 
-0 -0 266.2808677907845 1:-0.443908 2:0.653591 
-512 -0 512 1:-0.647955 2:0.233613 
-103.1782911215693 -0 30.88683180153285 1:-0.36781 2:-0.105957 
-512 -512 111.9566581726695 1:0.223724 2:0.409242 
-0 -0 512 1:-0.709365 2:0.52119 
-404.7240453960777 -0 512 1:-0.688846 2:0.302035 
-512 -0 0 1:-0.364417 2:-0.101127 
-0 -0 512 1:-0.437919 2:0.65432 
-0 -0 68.98168591807526 1:-0.633266 2:0.312702 
-512 -405.707033440419 0 1:0.205477 2:0.428441 
-0 -0 512 1:-0.701533 2:0.418748 
-0 -0 512 1:-0.437719 2:0.654962 
-0 -55.07714312201783 512 1:0.0823389 2:0.539111 
-512 -0 512 1:-0.622265 2:0.173139 
-0 -0 239.007349307856 1:-0.67638 2:0.318397 
-5.470934907612137 -0 0 1:0.451699 2:-0.57089 
-512 -0 0 1:0.466952 2:0.600138 
-0 -0 334.2576246450581 1:0.115455 2:0.546261 
-0 -0 512 1:-0.710085 2:0.402013 
-0 -53.24465248400485 0 1:-0.469722 2:0.15953 
-139.9957564354789 -0 512 1:-0.647474 2:0.23728 
-0 -0 512 1:-0.695471 2:0.365696 
-512 -0 512 1:-0.689566 2:0.393138 
-0 -0 28.2658107274047 1:-0.519958 2:0.259791 
-512 -0 512 1:-0.690209 2:0.293584 
-512 -67.06110717307537 0 1:-0.243386 2:0.339021 
-512 -0 0 1:-0.505551 2:0.261692 
-512 -512 0 1:-0.370167 2:0.616833 
-512 -512 319.683875569617 1:-0.368396 2:0.616045 
-0 -0 512 1:-0.703389 2:0.402425 
-0 -512 512 1:0.0660043 2:0.575901 
-0 -0 65.14016161374408 1:-0.641081 2:0.24287 
-512 -512 0 1:0.378674 2:0.620761 
-0 -196.1865461013887 0 1:-0.672394 2:0.493654 
-512 -0 512 1:-0.688073 2:0.290584 
-454.2931049885618 -0 512 1:-0.659689 2:0.359242 
-123.0644344730179 -0 122.3368187178608 1:0.0019357 2:0.269176 
-0 -0 512 1:-0.997315 2:0.584975 
-0 -0 512 1:-0.612576 2:0.176455 
-512 -512 175.9105508899713 1:-0.253892 2:0.357146 
-432.4135720706013 -364.5256378108443 512 1:0.095589 2:0.134475 
-0 -0 512 1:-0.69622 2:0.610993 
-0 -0 512 1:0.129769 2:0.517986 
-0 -0 512 1:-0.969195 2:0.57988 
-0 -9.385484549479795 0 1:0.112629 2:0.568871 
-512 -281.7653724882681 0 1:0.163091 2:0.538165 
-0 -0 512 1:-0.923953 2:0.585215 
-512 -512 204.5441636182505 1:0.242027 2:0.708364 
-512 -0 0 1:-0.676101 2:0.415527 
-512 -0 0 1:-0.405347 2:0.584308 
-0 -0 512 1:-0.631686 2:0.314018 
-355.891600955889 -0 512 1:-0.599069 2:0.0976291 
-3.406704034545366 -0 512 1:-0.912079 2:0.496812 
-0 -0 512 1:-0.68958 2:0.359993 
-22.66913867073536 -0 512 1:-0.240137 2:-0.494402 
-512 -0 0 1:-0.412105 2:0.617901 
-0 -0 512 1:-0.910717 2:0.497663 
-512 -512 0 1:-0.369804 2:0.341592 
-0 -0 512 1:-0.706854 2:0.521773 
-0 -0 341.6788671490006 1:-0.995203 2:0.607086 
-316.192104599128 -0 0 1:-0.676265 2:0.416566 
-0 -0 462.6006037595842 1:-0.596604 2:0.0978906 
-210.8425118179466 -471.1970858441082 397.7065687318982 1:0.0482574 2:0.118259 
-512 -512 0 1:0.380108 2:0.621582 
-512 -0 0 1:-0.686367 2:0.420431 
-385.5936800557706 -0 0 1:-0.517161 2:0.257144 
-0 -360.681279639346 512 1:-0.225241 2:-0.520026 
-0 -86.41392198878195 0 1:-0.0851981 2:-0.716703 
-512 -512 370.1314258481549 1:-0.267159 2:0.190044 
-0 -0 512 1:-0.945752 2:0.594836 
-0 -0 512 1:-0.673025 2:0.327335 
-56.70013913828105 -0 0 1:-0.888609 2:0.485709 
-0 -0 389.3930303122657 1:-0.131813 2:-0.752376 
-512 -0 512 1:-0.68992 2:0.392749 
-512 -0 0 1:0.131564 2:0.784356 
-490.7586113114036 -0 0 1:0.464376 2:0.599378 
-0 -0 24.80701171602545 1:-0.910149 2:0.497336 
-512 -429.3305867136579 0 1:0.39258 2:0.82328 
-0 -0 512 1:-0.687498 2:0.358793 
-512 -0 0 1:0.19218 2:0.730345 
-0 -0 512 1:-0.646146 2:0.241976 
-0 -182.5030665677364 0 1:0.454768 2:0.683234 
-253.7525498444756 -0 0 1:0.426669 2:0.839844 
-512 -512 430.3275648476906 1:-0.244807 2:0.724255 
-500.1569802750078 -0 90.8670033910097 1:0.170498 2:-0.0921802 
-0 -0 6.889922025150814 1:-0.702746 2:0.523069 
-0 -469.6357419325033 512 1:-0.703742 2:0.522452 
-0 -0 512 1:-0.629066 2:0.312267 
-512 -0 0 1:0.189676 2:0.728816 
-512 -455.8569877874783 0 1:-0.372885 2:0.615765 
-0 -0 512 1:-0.692006 2:0.573821 
-0 -0 159.1788900853117 1:-0.666766 2:0.279474 
-512 -0 64.0327229191041 1:-0.681555 2:0.415033 
-0 -0 512 1:-0.708699 2:0.402517 
-0 -0 122.0742705381437 1:-0.946207 2:0.594826 
-0 -0 210.2561715276233 1:-0.565517 2:0.311186 
-512 -512 0 1:-0.254522 2:0.753508 
-214.7140165302885 -250.0840777613044 6.078730319473473 1:0.475222 2:0.367007 
-0 -0 512 1:-0.719143 2:0.517374 
-512 -512 512 1:-0.256795 2:0.361685 
-0 -0 512 1:-0.707122 2:0.522274 
-0 -0 512 1:-0.596633 2:0.0984201 
-0 -0 147.3882914409718 1:-0.795536 2:0.500006 
-0 -0 286.0465279032645 1:-0.672484 2:0.565745 
-512 -0 0 1:0.422629 2:0.836947 
-0 -242.0024788534949 0 1:0.159926 2:-0.0698356 
-214.2854708425024 -0 0 1:-0.408075 2:0.583246 
-465.360967907677 -0 0 1:0.449935 2:0.595675 
-0 -235.793018396253 417.4420079873498 1:0.468785 2:-0.582444 
-0 -361.332866066297 0 1:0.405006 2:0.641999 
-0 -218.9617648787667 0 1:-0.702783 2:0.441314 
-0 -231.9801767267944 0 1:-0.363893 2:0.357515 
-0 -0 62.29639827974675 1:0.466008 2:0.640501 
-237.7320784178241 -0 0 1:0.105358 2:0.585232 
-512 -0 0 1:0.140497 2:0.747822 
-280.2187272073079 -0 512 1:-0.609072 2:0.35966 
-0 -512 49.7479883713798 1:-0.126779 2:-0.727076 
-0 -0 512 1:-0.684851 2:0.303296 
-197.5235500246147 -512 0 1:-0.383398 2:0.345551 
-0 -0 512 1:-0.705426 2:0.522743 
-512 -0 -512 1:-0.633811 2:0.315382 
-473.9562133961707 -329.8371752553455 -512 1:0.0954929 2:0.127683 
-512 -512 -0 1:-0.270523 2:-0.306047 
-0 -0 -512 1:-0.696947 2:0.572179 
-512 -0 -512 1:-0.641635 2:0.413791 
-0 -512 -0 1:0.647833 2:0.144538 
-176.6362135788216 -512 -0 1:0.755299 2:-0.948667 
-0 -376.231269963221 -512 1:0.0894115 2:0.533243 
-0 -0 -512 1:-0.697073 2:0.610642 
-512 -512 -0 1:-0.248116 2:-0.29649 
-0 -0 -512 1:-0.687765 2:0.355701 
-0 -0 -512 1:-0.621196 2:0.174425 
-424.3123162520666 -215.859332582161 -123.182152475371 1:0.539809 2:0.760409 
-472.8344734147363 -0 -512 1:-0.692983 2:0.425777 
-0 -0 -512 1:-0.728509 2:0.431546 
-0 -0 -512 1:-0.995827 2:0.585091 
-331.2980045408754 -207.9160184308508 -0 1:0.544944 2:0.622994 
-512 -512 -512 1:-0.269555 2:0.215819 
-512 -0 -512 1:-0.683206 2:0.393986 
-0 -0 -512 1:-0.945649 2:0.569505 
-0 -0 -512 1:-0.946476 2:0.594266 
-0 -0 -298.26281102377 1:-0.249689 2:-0.479476 
-512 -512 -86.92317205741291 1:-0.243913 2:-0.303041 
-0 -0 -512 1:-0.684691 2:0.530981 
-0 -0 -379.2639874925788 1:0.480377 2:-0.612638 
-0 -103.1070244783519 -512 1:-0.778438 2:0.482202 
-512 -512 -512 1:-0.376911 2:0.654493 
-512 -512 -0 1:-0.281962 2:-0.282165 
-269.2919192937182 -0 -512 1:-0.609747 2:0.174131 
-0 -0 -512 1:-0.677914 2:0.330926 
-0 -0 -512 1:-0.77228 2:0.455738 
-0 -512 -0 1:0.602542 2:0.0820843 
-512 -512 -0 1:0.648258 2:0.545917 
-512 -0 -512 1:-0.689275 2:0.291114 
-1.717955967161391 -0 -512 1:-0.894604 2:0.563651 
-512 -512 -144.760373473915 1:-0.259961 2:0.578638 
-512 -288.4808037432151 -512 1:-0.381464 2:-0.109759 
-0 -0 -512 1:-0.687832 2:0.292208 
-0 -0 -512 1:-0.222673 2:-0.521706 
-512 -0 -512 1:-0.596493 2:0.0964115 
-512 -512 -269.187095512879 1:0.328342 2:0.854344 
-121.300653573694 -18.78595885057513 -512 1:-0.779326 2:0.524376 
-161.04433615944 -1.315046752582043 -0 1:0.789162 2:1 
-157.0652047166951 -0 -512 1:-0.647432 2:0.236569 
-0 -0 -512 1:-0.695092 2:0.425402 
-0 -0 -512 1:-0.689095 2:0.363434 
-0 -512 -0 1:0.581707 2:0.0426451 
-0 -0 -512 1:-0.690471 2:0.371063 
-311.881235778033 -512 -0 1:0.635978 2:0.543141 
-0 -100.9905392348882 -512 1:-0.687989 2:0.529602 
-0 -0 -512 1:-0.696274 2:0.396994 
-0 -0 -512 1:-0.153194 2:-0.722079 
-512 -171.3995580161762 -512 1:0.202098 2:-0.0978234 
-0 -0 -512 1:-0.697365 2:0.362658 
-0 -489.7445468793068 -92.46463361094358 1:-0.252611 2:-0.452668 
-279.4746831103505 -0 -512 1:-0.68973 2:0.293626 
-512 -0 -512 1:-0.665606 2:0.414294 
-512 -512 -512 1:0.245516 2:0.709491 
-0 -0 -512 1:-0.996459 2:0.584321 
-0 -512 -0 1:0.551298 2:0.624752 
-0 -0 -512 1:-0.692875 2:0.573214 
-75.29026503392883 -0 -512 1:-0.878083 2:0.447739 
-512 -512 -0 1:-0.253562 2:0.544159 
-0 -153.1282465663443 -0 1:0.558151 2:0.575933 
-512 -36.55333155164396 -512 1:-0.690429 2:0.431122 
-171.5472131433548 -221.0752713193846 -512 1:0.00391191 2:0.597359 
-0 -0 -512 1:-0.622412 2:0.173864 
-0 -0 -512 1:-0.692135 2:0.362218 
-512 -512 -512 1:0.16329 2:0.483543 
-0 -0 -512 1:-0.619333 2:0.173469 
-512 -0 -512 1:-0.781303 2:0.42779 
-338.690274443554 -512 -0 1:0.820119 2:0.535112 
-340.0446677727259 -272.5385313614973 -7.399837432102652 1:0.415991 2:0.268487 
-0 -167.5183945301615 -0 1:0.511892 2:-0.606294 
-9.415873299112619 -512 -0 1:0.542954 2:-0.602688 
-512 -429.6489830052692 -512 1:-0.380641 2:0.695529 
-512 -512 -512 1:-0.253546 2:0.35498 
-512 -0 -512 1:-0.6446 2:0.283685 
-210.4650231740937 -512 -512 1:0.0463578 2:0.111311 
-512 -0 -512 1:-0.628957 2:0.310724 
-0 -42.49482286169459 -0 1:0.521882 2:0.110027 
-0 -312.9601203998703 -0 1:0.488005 2:-0.615984 
-512 -0 -512 1:-0.673236 2:0.316681 
-0 -0 -512 1:-0.696272 2:0.610992 
-0 -0 -512 1:0.0946377 2:0.515634 
-512 -0 -18.90664501464019 1:0.202394 2:-0.0387297 
-0 -131.260582741013 -0 1:0.621147 2:0.245942 
-28.82782580879463 -512 -512 1:-0.679914 2:0.49169 
-512 -362.1829663596209 -512 1:-0.551798 2:0.483264 
-512 -0 -0 1:0.53856 2:0.610938 
-44.72838886142496 -0 -512 1:-0.598658 2:0.0988131 
-0 -179.6277409242889 -0 1:-0.165045 2:-0.678972 
-512 -0 -512 1:-0.643774 2:0.234471 
-20.95784548210576 -417.2413565314249 -60.38057090803936 1:0.361569 2:-0.386184 
-0 -0 -512 1:-0.960977 2:0.590062 
-0 -512 -0 1:0.546483 2:0.623373 
-247.9587727825087 -0 -512 1:-0.384941 2:0.693974 
