svm_type c_svc
kernel_type rbf
gamma 8
nr_class 4
total_sv 437
rho 1.20155 0.194686 -2.07314 -1.01239 -1.2892 0.876024
label 0 1 2 3
nr_sv 138 94 106 99
SV
0 512 0 1:0.438077 2:0.836947 
512 0 0 1:-0.703942 2:0.522274 
294.9948513548967 512 512 1:-0.373863 2:0.652565 
0 512 512 1:0.407702 2:0.82328 
512 0 0 1:-0.686209 2:0.359993 
512 512 26.91997636716421 1:-0.354062 2:-0.113296 
0 323.5301978177378 512 1:0.395094 2:0.621582 
0 512 512 1:-0.236606 2:0.724255 
512 0 0 1:-0.638372 2:0.413108 
512 0 0 1:-0.692164 2:0.365696 
0 136.8001891841507 0 1:-0.692589 2:0.40281 
512 7.671174771118312 0 1:-0.923127 2:0.585215 
512 0 0 1:-0.688662 2:0.573821 
512 0 0 1:-0.604827 2:0.35966 
0 462.6159969788262 0 1:0.183208 2:-0.0921802 
512 0 0 1:0.127568 2:0.546261 
0 512 403.8853491891617 1:-0.356986 2:0.357515 
310.3842431427412 392.9158040524826 0 1:-0.627524 2:0.312538 
295.1728305098374 512 512 1:0.206349 2:0.730001 
512 0 0 1:-0.70283 2:0.395955 
0 0 427.5058010743078 1:-0.674116 2:0.492521 
0 139.2591870170714 0 1:-0.667646 2:0.31503 
69.76789090859161 467.3936116447117 512 1:-0.246427 2:0.753508 
265.8083164749757 0 0 1:-0.775878 2:0.425863 
79.18663307423896 59.0600181333718 184.1844931657338 1:0.172522 2:-0.0698356 
512 0 0 1:-0.716093 2:0.517374 
512 460.8073871689181 0 1:-0.686845 2:0.293584 
0 512 512 1:-0.362961 2:0.341592 
512 255.5573831599657 0 1:0.0128155 2:0.269176 
512 512 0 1:-0.627687 2:0.314018 
512 0 0 1:-0.652017 2:0.40983 
512 0 0 1:0.0596402 2:0.118259 
423.0955788711694 62.13077199465013 0 1:0.05399 2:0.116654 
512 0 0 1:-0.700925 2:0.523132 
0 512 512 1:-0.361538 2:0.616045 
0 0 5.277811810704515 1:0.113774 2:-0.610215 
512 0 0 1:-0.609124 2:0.176266 
69.28756991344963 0 0 1:-0.910389 2:0.547736 
512 363.7083473729634 0 1:-0.643646 2:0.23728 
0 512 90.87691762827406 1:0.205125 2:0.730345 
512 512 0 1:-0.669475 2:0.327335 
324.5561474858376 512 254.9093492813362 1:-0.245791 2:0.357146 
91.8722436730485 0 0 1:-0.672865 2:0.318397 
236.0136581521747 0 0 1:-0.587068 2:0.13857 
512 0 0 1:0.142037 2:0.517986 
0 425.2202406631749 0 1:-0.357515 2:-0.101127 
512 0 0 1:-0.687601 2:0.573828 
0 120.7005424765453 0 1:-0.393903 2:0.54024 
512 44.65047259440305 461.0139987532023 1:-0.216828 2:-0.520026 
58.92689301341982 0 0 1:-0.122386 2:-0.752376 
0 287.2700352447843 0 1:0.175721 2:0.538165 
16.53652714225431 0 0 1:0.0398556 2:0.63827 
0 19.39126052841947 0 1:0.0638461 2:0.627302 
512 0 0 1:-0.592253 2:0.0984201 
79.47242307538411 512 471.2694731041958 1:0.218567 2:0.428441 
512 512 0 1:0.200922 2:-0.0917301 
0 285.8437319291932 0 1:0.480278 2:0.599378 
512 512 0 1:-0.686553 2:0.392749 
0 277.8555896819158 0 1:-0.786969 2:0.498702 
0 0 96.98401826588069 1:-0.362477 2:0.0168903 
56.03767265495716 0 0 1:-0.943441 2:0.56838 
0 0 512 1:-0.376702 2:0.345551 
512 512 0 1:-0.686195 2:0.393138 
512 0 0 1:-0.702227 2:0.522743 
238.2923904442675 316.6240682926349 512 1:0.124711 2:0.568871 
0 512 33.28613013804301 1:0.117361 2:0.585232 
333.0922071362424 512 0 1:-0.672749 2:0.416566 
87.62987235871653 0 0 1:-0.117297 2:-0.727076 
0 512 0 1:-0.648473 2:0.309926 
0 3.147284287344566 0 1:0.467463 2:-0.57089 
512 0 0 1:-0.793316 2:0.500006 
0 512 512 1:-0.363328 2:0.616833 
512 512 0 1:-0.684686 2:0.290584 
0 0 512 1:0.0600909 2:0.0930627 
512 512 512 1:-0.2559 2:0.582016 
0 168.4957876751985 0 1:-0.511918 2:0.257144 
454.3652539963808 512 512 1:0.396943 2:0.828384 
87.60310630969258 186.0531373468673 0 1:0.477898 2:0.639546 
512 512 0 1:-0.644132 2:0.233613 
512 54.78388455889707 0 1:-0.231886 2:-0.494402 
512 0 0 1:-0.655562 2:0.414799 
0 269.8523936383185 266.8716785081918 1:-0.0752645 2:-0.716703 
274.052179334589 489.3584526954173 0 1:-0.592224 2:0.0978906 
512 0 0 1:-0.431614 2:0.654962 
0 0 12.70668815835931 1:-0.729725 2:0.463297 
512 0 210.6593097162631 1:0.0940918 2:0.539111 
512 512 0 1:-0.655994 2:0.359242 
512 0 0 1:-0.89053 2:0.541383 
512 191.4470242337931 334.0249961552606 1:-0.139083 2:-0.724366 
0 512 0 1:-0.398889 2:0.584308 
0 0 120.4477195660971 1:-0.699556 2:0.441314 
353.5211614214715 0 0 1:-0.99515 2:0.607086 
41.58750711973257 512 0 1:-0.360945 2:-0.105957 
0 512 0 1:0.482881 2:0.600138 
406.4505835561632 0 0 1:-0.437869 2:0.653591 
1.565469033598729 141.8600338792867 222.5087672905619 1:0.491241 2:0.367007 
0 247.4199905505965 0 1:0.442161 2:0.839844 
254.4049730225679 70.27552519474339 0 1:-0.877171 2:0.446663 
0 512 0 1:-0.500182 2:0.261692 
0 287.5395810628009 0 1:-0.69111 2:0.425273 
5.170117055694567 512 0 1:0.143851 2:0.784356 
0 0 212.0764948905266 1:0.470565 2:0.683234 
512 0 331.4236196430367 1:-0.706209 2:0.52119 
0 454.2264643062665 0 1:-0.405722 2:0.617901 
197.723723948739 512 512 1:-0.210721 2:0.704802 
44.54783654067354 0 0 1:-0.792514 2:0.498886 
411.4429023258458 0 0 1:-0.911124 2:0.496812 
0 512 0 1:0.152881 2:0.747822 
85.39027449087473 0 0 1:-0.703671 2:0.521773 
196.9861177444339 0 0 1:-0.560799 2:0.311186 
512 0 0 1:-0.685467 2:0.302035 
512 512 0 1:-0.594716 2:0.0976291 
37.80267468457624 1.084910948525374 0 1:-0.947521 2:0.769927 
512 512 0 1:-0.618163 2:0.173139 
0 512 0 1:-0.682961 2:0.420431 
0 512 512 1:0.237012 2:0.409242 
512 0 0 1:-0.655882 2:0.41541 
0 67.41764498654392 0 1:-0.359158 2:0.359722 
0 512 512 1:0.255514 2:0.708364 
0 512 0 1:-0.678097 2:0.415033 
512 0 0 1:-0.997286 2:0.584975 
512 0 0 1:-0.669671 2:0.563741 
512 0 0 1:-0.96886 2:0.57988 
0 512 512 1:0.393645 2:0.620761 
0 512 0 1:-0.23517 2:0.339021 
499.7295692639552 0 0 1:-0.682384 2:0.30344 
512 512 351.4965269739261 1:0.107486 2:0.134475 
512 512 512 1:-0.248724 2:0.361685 
313.6939643076654 512 512 1:-0.259201 2:0.190044 
250.8852872063818 0 0 1:-0.642304 2:0.241976 
512 0 0 1:-0.692921 2:0.610993 
157.6174641305441 0 204.6893848848245 1:0.484734 2:-0.582444 
512 0 0 1:-0.751818 2:0.351951 
0 512 0 1:-0.401648 2:0.583246 
0 0 14.10333063991733 1:-0.463964 2:0.15953 
512 512 0 1:-0.672584 2:0.415527 
0 0 340.8034090284668 1:0.420262 2:0.641999 
512 0 0 1:-0.757538 2:0.407421 
-512 512 0 1:-0.546931 2:0.483264 
-512 512 0 1:-0.68711 2:0.371063 
-512 0 0 1:-0.89346 2:0.563651 
-512 512 0 1:-0.629834 2:0.315382 
-512 512 332.0643100221044 1:-0.536773 2:0.47815 
-512 0 104.5575737039358 1:-0.684601 2:0.529602 
-0 0 512 1:0.653743 2:0.543141 
-0 0 512 1:0.598883 2:0.0426451 
-512 0 0 1:-0.945059 2:0.569505 
-0 141.8308828797892 0 1:0.575118 2:0.57574 
-512 0 0 1:-0.617083 2:0.174425 
-512 0 0 1:-0.691781 2:0.425402 
-512 512 0 1:-0.684374 2:0.355701 
-0 0 512 1:0.666156 2:0.545917 
-0 145.9447462628875 76.19479953427056 1:0.80859 2:1 
-512 512 512 1:0.259041 2:0.709491 
-512 0 0 1:-0.689925 2:0.573337 
-512 512 0 1:-0.671979 2:0.327673 
-0 0 74.69773088544346 1:0.538408 2:0.110027 
-512 512 0 1:-0.592111 2:0.0964115 
-512 512 0 1:-0.637743 2:0.413791 
-0 0 512 1:0.662833 2:0.545542 
-512 512 512 1:-0.261623 2:0.215819 
-512 475.2067322090564 0 1:-0.615199 2:0.173469 
-0 0 512 1:0.619944 2:0.0820843 
-0 0 101.9164133062988 1:0.63875 2:0.245942 
-512 0 0 1:-0.769807 2:0.455738 
-512 0 512 1:-0.676438 2:0.49169 
-230.3807472523823 0 179.1680301372712 1:-0.155978 2:-0.678972 
-446.7424140904934 352.4360733326595 0 1:0.00556901 2:0.286571 
-512 0 0 1:-0.692976 2:0.396994 
-512 512 0 1:-0.5943 2:0.0988131 
-0 512 512 1:0.750399 2:0.549497 
-155.2646182588427 0 260.2583934335403 1:0.496452 2:-0.612638 
-512 0 0 1:-0.689649 2:0.425777 
-512 512 0 1:-0.643604 2:0.236569 
-0 441.4378412736893 512 1:-0.262602 2:-0.306047 
-512 0 512 1:0.05772 2:0.111311 
-353.5356023755372 512 355.360917966203 1:0.0148132 2:0.597359 
-298.8943539055511 512 512 1:0.342767 2:0.854344 
-512 94.01549935824298 0 1:-0.87676 2:0.447739 
-0 7.269980530937022 262.0882025218571 1:0.559708 2:-0.602688 
-512 512 136.1400138589463 1:-0.24544 2:0.35498 
-512 0 0 1:-0.686361 2:0.293626 
-512 512 0 1:-0.60551 2:0.174131 
-512 508.1997409242488 512 1:-0.373915 2:0.695529 
-0 512 512 1:0.56172 2:0.622994 
-512 512 0 1:-0.685719 2:0.363434 
-512 0 238.4528346741965 1:0.101241 2:0.533243 
-512 0 0 1:-0.72556 2:0.431546 
-0 512 512 1:-0.274165 2:-0.282165 
-80.24980547957348 0 439.1141591963021 1:-0.244496 2:-0.452668 
-512 512 0 1:-0.679766 2:0.393986 
-512 453.4495163583417 0 1:-0.661975 2:0.414294 
-512 512 512 1:0.175922 2:0.483543 
-512 0 0 1:-0.693656 2:0.572179 
-512 0 0 1:-0.995782 2:0.585091 
-0 185.7182234427166 512 1:0.774359 2:-0.948667 
-512 0 0 1:-0.6859 2:0.291114 
-512 439.7444956399608 124.9566143082522 1:0.107389 2:0.127683 
-512 0 0 1:-0.618312 2:0.173864 
-512 138.7940560728597 0 1:-0.684442 2:0.292208 
-512 0 411.7206437567845 1:-0.378262 2:0.693974 
-512 512 0 1:-0.694079 2:0.362658 
-153.3278675897002 512 512 1:-0.245457 2:0.544159 
-142.7645713579506 367.601865831011 512 1:0.55653 2:0.760409 
-512 0 0 1:-0.960554 2:0.590062 
-512 512 0 1:-0.688792 2:0.362218 
-0 7.988328580996749 512 1:0.504162 2:-0.615984 
-512 205.740110000967 280.2243689424079 1:0.0533407 2:0.112224 
-512 512 0 1:-0.674417 2:0.330926 
-512 93.84599163876447 0 1:-0.143999 2:-0.722079 
-33.27857030397958 512 127.9958176995054 1:0.21545 2:-0.0387297 
-0 321.5800463016392 339.5606875931177 1:0.431367 2:0.268487 
-512 512 270.7162375973626 1:-0.374747 2:-0.109759 
-512 0 0 1:-0.991147 2:0.588272 
-512 0 70.52695502426322 1:-0.687067 2:0.431122 
-512 0 0 1:-0.68954 2:0.573214 
-512 3.304064975670122 55.86141674992864 1:-0.776032 2:0.482202 
-512 355.436518224261 55.81351582477422 1:-0.77693 2:0.524376 
-512 512 0 1:-0.640741 2:0.283685 
-512 512 35.3114067155786 1:0.215151 2:-0.0978234 
-0 512 512 1:-0.239952 2:-0.29649 
-512 0 147.0705013126999 1:-0.214233 2:-0.521706 
-512 100.7680809310618 0 1:-0.778928 2:0.42779 
-512 512 512 1:-0.251925 2:0.578638 
-512 101.9886598317341 0 1:0.106524 2:0.515634 
-86.29374661060174 393.7506851384209 512 1:-0.235703 2:-0.303041 
-512 512 0 1:-0.624928 2:0.310724 
-0 512 186.9133831033304 1:0.57507 2:0.575933 
-303.9358176551677 0 0 1:-0.241541 2:-0.479476 
-0 0 512 1:0.665727 2:0.144538 
-512 0 0 1:-0.693783 2:0.610642 
-512 0 0 1:-0.692974 2:0.610992 
-512 -512 0 1:-0.618967 2:0.172842 
-0 -512 512 1:-0.252683 2:-0.276672 
-512 -0 0 1:0.150709 2:0.742431 
-512 -512 512 1:-0.321287 2:0.682099 
-512 -512 0 1:-0.650293 2:0.411304 
-512 -415.6742474592879 355.6811253051031 1:-0.458435 2:0.565905 
-0 -512 512 1:-0.251756 2:-0.307894 
-0 -0 512 1:0.903421 2:0.948277 
-0 -512 512 1:-0.246351 2:0.544398 
-0 -512 0 1:0.233087 2:-0.0714774 
-512 -512 154.752023709168 1:-0.766127 2:0.45688 
-0 -0 512 1:0.808658 2:0.912794 
-512 -101.2519426056563 512 1:-0.11351 2:-0.698883 
-321.6295282059956 -512 512 1:0.567086 2:0.573854 
-271.4059744233484 -0 378.8192551758721 1:-0.333061 2:-0.144662 
-512 -512 0 1:-0.777759 2:0.426488 
-0 -0 184.0875226618445 1:1 2:0.930408 
-512 -485.7077400139154 512 1:0.474626 2:0.644025 
-512 -30.80711105129381 512 1:-0.269937 2:0.738608 
-1.937183629980997 -0 57.15436275338309 1:0.299766 2:-0.296431 
-512 -512 0 1:-0.648145 2:0.241742 
-512 -0 0 1:-0.33659 2:-0.13086 
-512 -0 512 1:-0.307685 2:0.573601 
-0 -10.45500043531928 512 1:0.370483 2:-0.299561 
-146.769571390736 -0 512 1:0.355718 2:0.843258 
-0 -15.66420193456408 512 1:0.257537 2:0.74247 
-512 -0 0 1:0.144884 2:0.782139 
-512 -512 0 1:-0.531029 2:0.438905 
-474.1732627925976 -0 512 1:0.260585 2:0.710442 
-7.453045442705434 -11.92277596346286 280.2371963529554 1:0.818602 2:0.116581 
-311.8198315205646 -0 512 1:0.315491 2:0.420625 
-0 -0 512 1:0.338663 2:0.835309 
-512 -512 0 1:-0.651138 2:0.308222 
-512 -0 342.4713840333886 1:0.389153 2:0.619563 
-0 -10.51806599392884 0 1:0.213245 2:0.734292 
-512 -512 0 1:-0.552015 2:0.0503267 
-512 -116.6144371212269 512 1:0.188294 2:0.470538 
-0 -0 40.15206697067769 1:0.906674 2:0.923122 
-0 -190.664336969498 512 1:0.751491 2:-0.929047 
-512 -0 512 1:-0.336808 2:0.287959 
-512 -512 0 1:-0.648121 2:0.321449 
-0 -0 512 1:-0.248027 2:0.228489 
-0 -0.08595613891248916 512 1:0.727745 2:-0.962748 
-0 -168.6298251774064 512 1:0.732421 2:0.606028 
-0 -379.6834020768998 512 1:0.289233 2:0.843843 
-0 -344.7740586764129 512 1:-0.249111 2:0.54347 
-512 -512 0 1:-0.6508 2:0.308691 
-512 -512 0 1:-0.550762 2:0.0504211 
-512 -0 512 1:-0.334893 2:0.597439 
-512 -512 197.2001173614505 1:0.0571353 2:0.615181 
-0 -0 512 1:0.897786 2:0.942725 
-512 -512 0 1:-0.664016 2:0.413256 
-0 -0 512 1:0.978879 2:0.949563 
-512 -0 0 1:0.225407 2:-0.11202 
-0 -0 350.8019330781846 1:0.211149 2:0.764505 
-1.615869490960815 -0 512 1:0.706194 2:-0.972598 
-512 -0 378.3695170502198 1:0.40552 2:0.855281 
-0 -81.18087319653804 462.3124123284601 1:0.249949 2:0.706799 
-0 -0 150.5719415291706 1:0.36819 2:-0.290656 
-512 -512 304.2359360845457 1:-0.247369 2:0.364554 
-512 -0 512 1:-0.336146 2:0.596444 
-512 -512 0 1:-0.645056 2:0.242591 
-0 -510.4765257484938 512 1:-0.243122 2:0.189741 
-0 -0 512 1:0.998263 2:0.9343 
-512 -0 512 1:0.415447 2:0.834732 
-110.4780434822541 -0 0 1:0.163705 2:0.753252 
-512 -512 0 1:-0.653584 2:0.318966 
-0.1611117524347813 -141.0070873626743 0 1:0.233567 2:-0.0874134 
-0 -0 123.8619343426123 1:0.914313 2:0.947474 
-512 -512 0 1:-0.646576 2:0.277336 
-512 -512 512 1:-0.660526 2:0.497451 
-0 -512 512 1:-0.226801 2:-0.307917 
-0 -473.3814699804182 512 1:-0.326135 2:-0.249822 
-0 -166.4900115088423 467.8966837597311 1:0.814592 2:0.96027 
-512 -368.6493199274694 50.74287050872793 1:0.166024 2:-0.0606737 
-512 -0 512 1:-0.258085 2:0.757505 
-512 -512 0 1:-0.648505 2:0.344075 
-0 -0 512 1:0.82443 2:0.926856 
-392.6611376544981 -0 512 1:-0.268514 2:0.231464 
-512 -0.5222478203911161 0 1:-0.248652 2:0.356364 
-0 -0 512 1:0.34726 2:0.844578 
-512 -0 512 1:-0.337513 2:0.596349 
-512 -512 0 1:-0.644766 2:0.282339 
-512 -512 0 1:-0.64798 2:0.418071 
-512 -0 512 1:0.312843 2:0.420946 
-512 -188.3731779968864 512 1:-0.331409 2:-0.116309 
-0 -0 512 1:0.335548 2:-0.327228 
-0 -0 512 1:0.31973 2:0.814433 
-512 -0 512 1:-0.339659 2:0.636738 
-381.8635662855618 -0 512 1:-0.307587 2:0.604392 
-512 -0 512 1:-0.328322 2:0.277825 
-512 -512 0 1:-0.686123 2:0.341183 
-512 -512 0 1:0.00761827 2:0.286925 
-512 -0 0 1:0.147795 2:0.737694 
-0 -0 411.1946137554249 1:0.396732 2:0.378383 
-512 -512 512 1:0.112993 2:0.111593 
-512 -497.7380941987385 512 1:0.443765 2:0.814995 
-512 -512 497.0455883654133 1:0.141934 2:0.548923 
-0 -252.1992900050181 512 1:0.757123 2:0.511636 
-0 -512 512 1:0.655025 2:0.598888 
-512 -512 0 1:-0.673226 2:0.304059 
-512 -0 512 1:0.263088 2:0.711194 
-0 -373.5809403766597 239.083799966473 1:0.384941 2:0.27669 
-512 -0 512 1:-0.339825 2:0.297161 
-512 -0 512 1:0.387075 2:0.660108 
-0 -0 512 1:-0.25533 2:0.582007 
-512 -0 -512 1:0.277821 2:0.477532 
-58.59185803066399 -0 -210.1343429548133 1:0.377723 2:0.738372 
-0 -512 -0 1:-0.285475 2:-0.285456 
-0 -0 -310.9896458712848 1:-0.313721 2:0.273953 
-0 -0 -200.7794688371908 1:0.837913 2:0.534848 
-0 -0 -512 1:-0.271796 2:0.487798 
-0 -0 -512 1:-0.31002 2:0.613466 
-512 -207.565298714297 -512 1:-0.337579 2:0.62319 
-98.31526375087992 -224.1616196904561 -32.96693827366093 1:-0.311599 2:-0.0891465 
-0 -0 -512 1:0.339452 2:0.839485 
-76.04487972764082 -0 -512 1:0.306848 2:-0.303474 
-42.43685176169126 -512 -0 1:0.571464 2:0.207384 
-512 -512 -512 1:0.10821 2:0.522722 
-26.55909494493842 -114.8589434954445 -512 1:0.702151 2:0.898386 
-0 -0 -197.1749381262767 1:-0.289689 2:0.215312 
-0 -512 -496.1386942735438 1:0.646711 2:0.59613 
-177.5927114735658 -0 -54.99953378318382 1:-0.130992 2:-0.67313 
-201.7136590427175 -0 -512 1:0.336593 2:0.848828 
-0 -10.66912723484307 -223.0457290514042 1:0.359514 2:-0.328833 
-0 -0 -512 1:-0.307388 2:0.573682 
-512 -0 -199.7212082628893 1:-0.212416 2:0.705552 
-139.0042456518345 -16.40486405041557 -512 1:-0.283483 2:0.240019 
-0 -0 -512 1:-0.308129 2:-0.121825 
-0 -512 -512 1:0.664009 2:0.544381 
-0 -512 -55.75982226340371 1:0.572938 2:0.0580996 
-0 -0 -379.3783595667606 1:0.295227 2:0.851668 
-0 -454.0543143184523 -512 1:-0.212809 2:-0.348699 
-223.7369490191208 -512 -512 1:0.567474 2:0.613629 
-3.353051656407386 -67.32637109513652 -512 1:0.383693 2:-0.314461 
-0 -0 -512 1:0.821919 2:0.924643 
-0 -0 -512 1:0.278284 2:0.384374 
-0 -323.9079800465055 -0 1:0.644558 2:0.661757 
-0.9898160880915098 -38.08853001392637 -256.2726045849096 1:0.796896 2:0.166495 
-512 -512 -512 1:0.401979 2:0.827074 
-0 -0 -512 1:0.818892 2:0.924186 
-0 -0 -512 1:0.905499 2:0.924994 
-214.1550009782642 -137.9720508323017 -512 1:0.391603 2:0.391913 
-512 -0 -0 1:-0.322642 2:0.288203 
-0 -0 -512 1:0.991447 2:0.952163 
-512 -196.0146275576591 -512 1:0.252403 2:0.742237 
-446.1381370365544 -0 -512 1:0.259895 2:0.710498 
-0 -0 -512 1:-0.319771 2:-0.253265 
-0 -512 -107.5337066478253 1:-0.265931 2:-0.295749 
-512 -512 -257.91570846209 1:-0.669922 2:0.494455 
-512 -247.2763211498165 -0 1:0.242778 2:0.388417 
-0 -0 -512 1:0.34599 2:0.836149 
-512 -0 -512 1:-0.313452 2:0.294349 
-343.3962639808505 -512 -0 1:-0.202832 2:-0.498247 
-512 -172.5007130828204 -512 1:0.379765 2:0.738368 
-0 -0 -512 1:-0.309792 2:0.614209 
-512 -147.027911698631 -512 1:0.400628 2:0.622855 
-0 -0 -512 1:0.339711 2:0.83445 
-192.85825131124 -0 -512 1:-0.312088 2:0.572269 
-342.3560547129718 -0 -220.4707483025243 1:-0.29229 2:0.770986 
-512 -124.3491238916945 -439.1625506440602 1:-0.126084 2:-0.709655 
-0 -0 -340.7971455934429 1:0.750605 2:0.569905 
-0 -0 -230.7119287711184 1:-0.308425 2:0.614073 
-0 -0 -512 1:0.268107 2:0.713062 
-0 -0 -512 1:0.322322 2:0.36484 
-0 -0 -327.8342678315614 1:-0.321481 2:-0.258717 
-512 -512 -42.88567486636497 1:0.0570001 2:0.0879144 
-0 -0 -512 1:0.996177 2:0.933639 
-0 -0 -420.6123789478584 1:-0.284421 2:-0.158378 
-0 -238.4434171583092 -0 1:0.642238 2:0.0527688 
-189.6261303165748 -512 -512 1:-0.351089 2:0.673399 
-395.5146338557951 -512 -512 1:-0.269235 2:0.482219 
-0 -31.59983636784316 -512 1:-0.279738 2:0.20741 
-0 -0 -451.1429587076354 1:0.731445 2:-0.975672 
-0 -0 -512 1:0.26004 2:0.745909 
-0 -213.8331687279135 -0 1:0.284921 2:0.841694 
-0 -92.97082366325596 -0 1:0.597978 2:0.0253424 
-0 -512 -512 1:-0.277225 2:0.219947 
-0 -512 -0 1:0.542507 2:-0.631159 
-512 -0 -512 1:-0.249575 2:0.733312 
-512 -0 -512 1:-0.333086 2:0.5973 
-0 -6.905719082895199 -512 1:0.709766 2:-0.954325 
-25.30982921814996 -0 -0 1:-0.314783 2:-0.280268 
-0 -512 -0 1:0.660049 2:0.108127 
-157.0725447309796 -0 -216.6899728906282 1:-0.266502 2:0.737198 
-0 -367.0005441456449 -0 1:-0.245855 2:0.543913 
-512 -0 -0 1:-0.324875 2:0.310115 
-0 -478.2001431519878 -342.3793932057562 1:0.786999 2:-0.964474 
-512 -512 -512 1:-0.666362 2:0.494387 
-187.1600169445055 -512 -0 1:0.508156 2:-0.624159 
-0 -0 -242.2546339150163 1:0.677976 2:-0.910456 
-0 -507.6748377161642 -0 1:0.746368 2:0.508313 
-0 -25.61564160451855 -512 1:0.914597 2:0.992774 
-512 -0 -512 1:-0.335186 2:0.59703 
-0 -512 -50.70913460230808 1:-0.347406 2:0.701009 
-0 -0 -512 1:0.344506 2:0.835321 
-512 -512 -512 1:0.0578494 2:0.595213 
-512 -512 -512 1:0.10087 2:0.0936862 
-512 -0 -512 1:0.391522 2:0.661329 
-0 -512 -512 1:-0.264772 2:-0.295047 
-512 -0 -512 1:-0.319951 2:0.301102 
-0 -0 -39.82156077498234 1:0.84566 2:-0.0824886 
-0 -512 -102.3892350803091 1:0.664663 2:0.545545 
-0 -222.2629993774431 -0 1:-0.310928 2:-0.286593 
-0 -0 -512 1:0.912385 2:0.926341 
