svm_type c_svc
kernel_type rbf
gamma 8
nr_class 2
total_sv 248
rho 0.225665
label 1 0
nr_sv 120 128
SV
32 1:0.172003 2:-0.0698356 
32 1:0.344095 2:0.835321 
32 1:-0.547901 2:0.483264 
32 1:0.339297 2:0.83445 
32 1:0.294785 2:0.851668 
32 1:-0.690599 2:0.573214 
8.760543731380205 1:0.257072 2:0.74247 
32 1:0.0141952 2:0.597359 
32 1:-0.33422 2:0.27524 
32 1:-0.424488 2:0.404148 
32 1:-0.351937 2:0.673399 
12.8427890118236 1:0.391222 2:0.391913 
32 1:0.419899 2:0.641999 
32 1:-0.778888 2:0.427693 
32 1:0.39114 2:0.661329 
32 1:-0.645797 2:0.282339 
32 1:-0.48896 2:0.15569 
32 1:0.204416 2:0.728212 
14.87927466751603 1:0.538118 2:0.110027 
32 1:-0.308506 2:0.573601 
32 1:0.377332 2:0.738372 
25.84641517178648 1:0.383306 2:-0.314461 
0.5953985238198733 1:0.359113 2:-0.328833 
32 1:-0.401342 2:0.0268663 
0.4472272188867719 1:0.467349 2:0.677151 
24.08517853678987 1:0.751335 2:-0.929047 
32 1:-0.25271 2:0.578638 
32 1:-0.996402 2:0.607086 
32 1:-0.33573 2:0.597439 
32 1:0.249479 2:0.706799 
32 1:-0.537736 2:0.47815 
32 1:-0.778877 2:0.42771 
32 1:-0.693983 2:0.610993 
32 1:-0.428479 2:0.0620577 
32 1:-0.779206 2:0.429458 
32 1:-0.673028 2:0.327673 
32 1:-0.256687 2:0.582016 
32 1:-0.312911 2:0.572269 
32 1:-0.262414 2:0.215819 
32 1:-0.278566 2:0.732834 
32 1:-0.26931 2:0.231464 
0.5546943239924738 1:0.862768 2:0.0732458 
12.8074001173324 1:0.150177 2:0.742431 
32 1:-0.393279 2:0.408304 
32 1:-0.536552 2:0.436364 
32 1:0.145454 2:0.737913 
32 1:-0.24881 2:0.228489 
32 1:-0.446605 2:0.563164 
32 1:-0.777615 2:0.42753 
32 1:-0.272593 2:0.487798 
32 1:-0.348251 2:0.701009 
32 1:0.339038 2:0.839485 
32 1:-0.495299 2:0.165748 
32 1:0.14726 2:0.737694 
32 1:0.260121 2:0.710442 
32 1:-0.366932 2:0.615765 
32 1:0.100677 2:0.533243 
11.43513378102673 1:0.277888 2:0.824667 
1.398638905667487 1:0.571196 2:0.207384 
8.409971420680735 1:0.43101 2:0.268487 
32 1:-0.670522 2:0.327335 
14.54974541417605 1:-0.246222 2:0.35498 
32 1:-0.675467 2:0.330926 
32 1:0.443416 2:0.814995 
32 1:0.327692 2:-0.327995 
32 1:-0.690985 2:0.573337 
32 1:-0.24232 2:-0.479476 
32 1:-0.250529 2:0.543328 
32 1:-0.290498 2:0.215312 
32 1:-0.646087 2:0.242591 
20.78962057744367 1:0.180067 2:-0.0929076 
32 1:-0.449139 2:0.610306 
32 1:-0.246238 2:0.544159 
32 1:-0.249895 2:0.54347 
32 1:-0.329155 2:0.277825 
32 1:-0.270031 2:0.482219 
32 1:0.738006 2:-0.97908 
32 1:-0.249508 2:0.361685 
32 1:0.255047 2:0.708364 
1.353879873009673 1:0.677774 2:-0.910456 
32 1:-0.58927 2:0.213945 
32 1:-0.434982 2:0.459306 
32 1:-0.338982 2:0.286342 
1.542704867264584 1:0.375963 2:-0.386184 
32 1:-0.689721 2:0.573821 
32 1:-0.670718 2:0.563741 
15.18431135708219 1:0.232606 2:-0.0714774 
32 1:0.470233 2:0.683234 
32 1:-0.213176 2:0.705552 
32 1:-0.669975 2:0.565745 
32 1:-0.549142 2:0.435656 
32 1:0.400252 2:0.622855 
32 1:-0.320187 2:0.683579 
32 1:0.490922 2:0.367007 
32 1:-0.501123 2:0.261692 
32 1:-0.432177 2:0.456825 
32 1:0.0935236 2:0.539111 
32 1:-0.778874 2:0.426488 
32 1:0.277368 2:0.477532 
32 1:0.727574 2:-0.962748 
32 1:-0.371004 2:0.654493 
32 1:-0.780044 2:0.42779 
32 1:0.774218 2:-0.948667 
32 1:-0.253469 2:-0.276672 
32 1:0.334153 2:0.830766 
32 1:0.204627 2:0.730345 
32 1:-0.367265 2:-0.0672589 
32 1:0.259431 2:0.710498 
32 1:-0.256117 2:0.582007 
32 1:0.0565439 2:0.615181 
32 1:0.336177 2:0.848828 
10.33675208268067 1:0.556251 2:0.760409 
32 1:-0.381705 2:0.349532 
30.84205378015854 1:0.175405 2:0.483543 
0.7668389477834824 1:0.80847 2:1 
32 1:-0.644677 2:0.23728 
32 1:0.284473 2:0.841694 
32 1:0.141498 2:0.517986 
32 1:-0.214994 2:-0.521706 
32 1:0.141396 2:0.548923 
-27.7378595444647 1:-0.401555 2:0.414173 
-32 1:-0.243012 2:-0.478966 
-32 1:0.391392 2:0.443603 
-32 1:0.259576 2:0.745909 
-32 1:-0.654621 2:0.318966 
-30.14421816487961 1:-0.247209 2:0.753508 
-0.8137336086704425 1:0.113219 2:-0.610215 
-26.10893673855018 1:-0.670969 2:0.494455 
-32 1:0.335132 2:-0.327228 
-22.80827719515541 1:-0.259991 2:0.190044 
-32 1:-0.363816 2:0.341592 
-32 1:-0.419251 2:0.0177352 
-1.095015716018397 1:-0.144717 2:-0.722079 
-32 1:-0.585447 2:0.209486 
-32 1:0.288787 2:0.843843 
-32 1:0.10765 2:0.522722 
-32 1:-0.878349 2:0.446663 
-32 1:0.12702 2:0.546261 
-32 1:-0.6672 2:0.496019 
-32 1:0.528563 2:0.221588 
-0.2744577242100081 1:-0.912323 2:0.496812 
-32 1:0.258576 2:0.709491 
-32 1:0.34685 2:0.844578 
-32 1:0.786866 2:-0.964474 
-32 1:0.342354 2:0.854344 
-11.42980631003927 1:-0.686776 2:0.363434 
-32 1:-0.314545 2:0.273953 
-32 1:-0.36001 2:0.359722 
-32 1:-0.422185 2:0.02708 
-32 1:-0.667407 2:0.494387 
-32 1:0.0770012 2:0.575901 
-32 1:-0.243902 2:0.189741 
-32 1:-0.340499 2:0.636738 
-32 1:-0.397948 2:0.539315 
-32 1:0.267648 2:0.713062 
-32 1:0.355313 2:0.843258 
-32 1:0.0502631 2:0.637014 
-32 1:0.70601 2:-0.972598 
-32 1:-0.400473 2:0.538342 
-8.932723055752071 1:-0.75864 2:0.407421 
-32 1:0.338248 2:0.835309 
-32 1:-0.696274 2:0.524212 
-32 1:-0.661568 2:0.497451 
-0.06622022155522694 1:-0.685161 2:0.358793 
-11.32761531760205 1:-0.649507 2:0.309926 
-13.22806191939431 1:-0.687266 2:0.359993 
-23.55001964873321 1:-1 2:0.626207 
-32 1:0.165501 2:-0.0606737 
-26.32331821598006 1:0.779503 2:-1 
-32 1:-0.278026 2:0.219947 
-15.51215659316559 1:-0.285227 2:-0.158378 
-32 1:-0.394777 2:0.54024 
-32 1:0.319303 2:0.814433 
-32 1:0.262626 2:0.711194 
-0.6470630571703101 1:-0.888583 2:0.485709 
-32 1:-0.340665 2:0.297161 
-32 1:-0.649155 2:0.321449 
-32 1:-0.278883 2:0.493056 
-32 1:0.205851 2:0.730001 
-32 1:-0.627966 2:0.292204 
-32 1:-0.877937 2:0.447739 
-32 1:-0.309246 2:0.614073 
-32 1:-0.338352 2:0.596349 
-32 1:-0.284288 2:0.240019 
-19.82263201224153 1:0.396565 2:0.828384 
-32 1:0.379376 2:0.738368 
-32 1:-0.333922 2:0.5973 
-32 1:-0.338418 2:0.62319 
-9.682378949942795 1:-0.630306 2:0.312702 
-32 1:-0.586885 2:0.214181 
-32 1:0.0392534 2:0.63827 
-32 1:0.0632589 2:0.627302 
-32 1:0.386691 2:0.660108 
-12.36271014383829 1:-0.685431 2:0.355701 
-32 1:0.445885 2:0.812199 
-30.48262182391454 1:-0.232659 2:-0.494402 
-32 1:0.709584 2:-0.954325 
-31.54096458251634 1:-0.687181 2:0.341183 
-32 1:-0.314276 2:0.294349 
-4.048151024370561 1:-0.689851 2:0.362218 
-32 1:0.367794 2:-0.290656 
-32 1:-0.752917 2:0.351951 
-32 1:-0.360452 2:0.360721 
-32 1:-0.325706 2:0.310115 
-32 1:-0.649539 2:0.344075 
-32 1:-0.310613 2:0.614209 
-32 1:0.0572585 2:0.595213 
-32 1:0.395477 2:0.62185 
-32 1:0.345579 2:0.836149 
-32 1:-0.308208 2:0.573682 
-11.05754819497719 1:-0.364183 2:0.616833 
-10.20447607440921 1:-0.274964 2:-0.282165 
-32 1:0.312412 2:0.420946 
-32 1:-0.323471 2:0.288203 
-32 1:-0.260195 2:0.616957 
-32 1:-0.688659 2:0.573828 
-32 1:-0.685658 2:0.529602 
-32 1:-0.694036 2:0.610992 
-9.824009572282902 1:-0.416978 2:0.0191553 
-16.92356246729614 1:-0.384392 2:-0.0944186 
-32 1:-0.310842 2:0.613466 
-13.89070040185101 1:0.00455625 2:0.653513 
-32 1:0.214958 2:-0.0387297 
-32 1:0.197272 2:0.725756 
-1.622629474685036 1:-0.240729 2:-0.29649 
-32 1:-0.694846 2:0.610642 
-32 1:0.124162 2:0.568871 
-13.59614624990724 1:-0.700585 2:0.523069 
-32 1:-0.55515 2:0.189 
-32 1:-0.357837 2:0.357515 
-11.59232206529924 1:-0.119677 2:-0.344404 
-32 1:0.465345 2:0.595675 
-32 1:0.134316 2:0.555856 
-27.09694020740067 1:-0.580647 2:0.157199 
-32 1:-0.308407 2:0.604392 
-2.120419378969395 1:-0.156704 2:-0.678972 
-1.392705448711925 1:-0.948743 2:0.769927 
-32 1:-0.336023 2:0.59703 
-30.35429799987636 1:-0.438771 2:0.653591 
-10.3002849855956 1:-0.353779 2:0.925065 
-32 1:0.281954 2:0.833026 
-32 1:-0.666057 2:0.496528 
-32 1:-0.336984 2:0.596444 
-32 1:0.394714 2:0.621582 
-32 1:-0.246636 2:0.543913 
-14.93970549124641 1:-0.21148 2:0.704802 
-2.57388272962823 1:-0.40168 2:0.538362 
-32 1:-0.408707 2:0.467521 
