svm_type c_svc
kernel_type rbf
gamma 0.5
nr_class 4
total_sv 446
rho 0.134956 -0.292393 -0.0812886 -0.463038 -0.3126 0.0326987
label 0 3 2 1
nr_sv 126 105 118 97
SV
0 1 0 1:1.0000323 2:-0.21961837 
1 1 1 1:-0.15564804 2:-0.20877183 
0.2150376534384147 0.09081679717021085 0.1867172837808086 1:1.5365642 2:0.71286194 
0 1 0 1:1.0200965 2:-0.21849085 
1 0 1 1:-0.032228441 2:-0.22078859 
1 1 1 1:-0.32281859 2:-0.21817112 
1 1 1 1:0.87605415 2:-0.24554764 
1 0.4127023771278488 0.6646714490775311 1:3.1277187 2:-0.38577787 
1 1 1 1:-0.16233476 2:-0.20914781 
0.9399665626960668 0 0 1:1.4070943 2:4.7589364 
0 1 1 1:0.97330438 2:-0.22112431 
1 1 1 1:-0.48636113 2:-0.20840997 
0 1 0 1:2.070561 2:-0.28657694 
0 1 1 1:0.91310644 2:-0.2245063 
0 0 0.238083603608648 1:-0.014668231 2:-0.16293017 
0 1 0 1:0.99334558 2:-0.21999435 
1 1 1 1:-0.7702672 2:-0.20541624 
0 1 0 1:2.0691044 2:-0.2864223 
0 1 0 1:1.4214054 2:-0.24806472 
1 1 1 1:-1.0695536 2:0.31402139 
0.6391450964459069 0 1 1:0.29243433 2:4.0759266 
1 1 1 1:-0.6833358 2:-0.2005289 
0 1 0 1:2.0723874 2:-0.28568497 
0 1 1 1:0.88635957 2:-0.22601023 
1 1 1 1:0.45478993 2:-0.26923446 
0 1 0 1:0.97328952 2:-0.22112273 
1 1 1 1:-0.80370078 2:-0.20729616 
0 1 0 1:1.0067681 2:-0.21924759 
0 0.2574749816499234 0 1:1.264776 2:-0.22492123 
0 1 0 1:1.4207634 2:-0.24799656 
0 1 0 1:1.4218541 2:-0.24811235 
1 1 1 1:1.1795117 2:-0.22889969 
0 1 0 1:2.0611097 2:-0.28665943 
0 1 0 1:0.9933794 2:-0.21999794 
0 1 0 1:0.7495639 2:-0.21474516 
0 1 0.1106059890180525 1:0.97330178 2:-0.22112404 
0 1 0 1:0.98667782 2:-0.22037235 
1 1 1 1:-0.05228859 2:-0.22191654 
0 1 0 1:2.1196912 2:-0.28962103 
0.4615317888602565 1 1 1:0.84263178 2:-0.24742875 
0 0.04088312426007657 0 1:1.9139948 2:-0.27429882 
0 1 1 1:0.93317713 2:-0.22337947 
1 1 1 1:-0.16902148 2:-0.20952379 
0 1 0 1:1.1928641 2:-0.22814549 
0.5112387753613495 1 0.6462677650447526 1:1.1864093 2:-0.2285461 
0 0 0.7147578200767146 1:0.12157131 2:-0.21214154 
1 1 1 1:-0.3927471 2:-0.20314621 
1 1 1 1:-0.70702277 2:-0.22081741 
0 0.128512503023597 1 1:0.3384258 2:2.2922223 
0 0 1 1:0.11488459 2:-0.21251752 
0 0.285307104024828 0 1:1.4412889 2:-0.24691802 
1 1 1 1:0.33805215 2:-0.25684119 
1 0 1 1:-0.095471679 2:-0.20538754 
1 1 1 1:-0.065662023 2:-0.2226685 
1 1 1 1:1.1795223 2:-0.22890081 
0 1 0.3485484777672137 1:2.0595639 2:-0.28649532 
0 1 1 1:0.88637011 2:-0.22601135 
1 1 1 1:0.92954508 2:-0.24253948 
1 1 1 1:-0.81707421 2:-0.20804812 
0 0 1 1:-0.021354947 2:-0.16330615 
0 0 1 1:0.12157131 2:-0.21214154 
0.2923693943088804 0 0.09154942002512285 1:1.1097859 2:1.035973 
1 0 1 1:0.088137728 2:-0.21402145 
0 1 0 1:2.0670235 2:-0.28620139 
1 1 1 1:-0.48636113 2:-0.20840997 
0 1 1 1:2.0591329 2:-0.28644956 
0 0 0.9422072532813656 1:0.12157131 2:-0.21214154 
1 1 1 1:1.1177516 2:-0.25274731 
1 1 1 1:-0.16651626 2:-0.26625482 
0 1 0 1:1.4139224 2:-0.24835617 
1 1 1 1:-2.8297766 2:-0.32121893 
1 1 1 1:-0.71676938 2:-0.20240881 
1 0.5551113944008506 1 1:-0.038915157 2:-0.22116457 
0 0 0.4605112835294758 1:-0.41430821 2:0.16900105 
0 1 0 1:1.0134221 2:-0.21886814 
1 1 1 1:-0.12890526 2:-0.20726746 
0 0 1 1:0.11488459 2:-0.21251752 
0 1 0 1:1.2514323 2:-0.22567635 
0 1 1 1:0.87298614 2:-0.2267622 
0.1596023379551611 0 1 1:0.11488459 2:-0.21251752 
0 0.1272930710125435 0 1:0.74287718 2:-0.21512114 
1 1 1 1:-0.1021584 2:-0.20576353 
0.781791002170006 1 1 1:0.35142558 2:-0.25608923 
0 0.98042184963759 0.5037878251062351 1:1.4179896 2:4.8861308 
0 1 1 1:0.83593385 2:-0.24780354 
0 1 0 1:0.99334967 2:-0.21999479 
1 1 1 1:0.85599961 2:-0.24667619 
1 1 1 1:-2.2382809 2:-0.30691751 
0 1 1 1:0.88635957 2:-0.22601023 
1 1 1 1:0.87605976 2:-0.24554824 
0 1 0 1:1.2127977 2:-0.22700411 
1 1 1 1:-0.77695391 2:-0.20579223 
0 1 0 1:0.97328952 2:-0.22112273 
0.8399978663156525 0.3969584470008406 1 1:0.75723665 2:2.0592866 
1 0 1 1:-0.47943644 2:3.8656704 
1 1 1 1:0.88943039 2:-0.24479598 
1 0 1 1:-0.03472838 2:-0.16405812 
0 0 0.2692748534227872 1:0.91078389 2:4.6392792 
1 0 1 1:-0.70586809 2:0.21584988 
0 1 0 1:1.006719 2:-0.21924239 
0.8354581859463196 0 0 1:3.1227912 2:-0.38525475 
0 0.7529254525728918 0 1:2.1231089 2:-0.288898 
1 1 1 1:-0.10884511 2:-0.20613951 
1 1 1 1:-0.72708292 2:-0.22194536 
1 1 1 1:-2.8230899 2:-0.32084294 
0 1 0.6898009076632688 1:1.8989239 2:-0.27487058 
1 1 1 1:-0.77695391 2:-0.20579223 
1 1 1 1:-0.46630098 2:-0.20728203 
0 1 1 1:0.9666028 2:-0.22149872 
1 0 1 1:-0.70765456 2:0.29721298 
1 1 1 1:-0.4328674 2:-0.20540211 
1 1 1 1:-0.079035456 2:-0.22342047 
1 1 1 1:-0.47298769 2:-0.20765801 
1 1 1 1:-0.13558789 2:-0.20764388 
1 1 1 1:-0.12221855 2:-0.20689148 
0.8291830017308173 0.5480284119147262 0.6889734728301663 1:3.0841868 2:1.3070876 
1 1 1 1:-0.42618068 2:-0.20502613 
0 1 0 1:2.0614516 2:-0.28669572 
0.009554070628105246 1 0 1:1.3873764 2:-0.24662382 
0.6442184094540105 1 1 1:0.92969782 2:5.3024417 
1 0 1 1:0.094824445 2:-0.21364547 
1 0.601042144315781 1 1:-0.822753 2:4.1352488 
1 0 1 1:-0.39361806 2:1.7866549 
0 1 0 1:0.98666295 2:-0.22037077 
0 1 0 1:2.0803226 2:-0.28544153 
1 1 1 1:-0.18908162 2:-0.21065174 
-1 1 1 1:0.77575677 2:-0.25118775 
-0 1 0 1:-5.1032597 2:-0.4490532 
-0 1 0 1:-5.0497659 2:-0.44604533 
-1 1 1 1:-0.11970925 2:-0.26362294 
-1 0.3065650420715397 1 1:-0.83825189 2:-0.28506811 
-0 0 1 1:-1.1828663 2:6.0845624 
-1 1 1 1:-3.0704977 2:-0.33475439 
-1 1 1 1:0.6139521 2:-0.13675742 
-0 0 1 1:-2.7604036 2:-0.37419019 
-1 1 1 1:0.2784324 2:-0.22227923 
-0.5894815570181235 0.3731703378458542 0.3546568103563116 1:-4.4579334 2:4.1266328 
-1 1 1 1:0.8158723 2:-0.24893134 
-0 1 0.05645648636704558 1:-1.4096868 2:-0.29824164 
-1 1 1 1:0.28455772 2:-0.25984898 
-0 1 0 1:-3.4990068 2:-0.39676326 
-0 0 1 1:-2.633356 2:-0.36704652 
-1 0.3597587207394878 1 1:-0.80388786 2:5.1055485 
-1 1 1 1:0.41466963 2:-0.27149035 
-0 0 1 1:-1.2759538 2:-0.29072183 
-0 1 1 1:-1.1895843 2:-0.32378017 
-0 1 0 1:-1.7537726 2:-0.29863183 
-0 0 1 1:-1.2425203 2:-0.28884192 
-0 1 0 1:-1.4297469 2:-0.29936959 
-0 1 0 1:-3.4923201 2:-0.39638728 
-1 1 1 1:-0.42783623 2:-0.13565634 
-1 1 1 1:3.0794381 2:-0.38173811 
-0 0 0.9735938922064201 1:-2.5324964 2:-0.32346077 
-1 1 1 1:-0.28019044 2:-0.27264653 
-1 1 1 1:-0.65771125 2:-0.27491649 
-1 1 1 1:0.72013354 2:0.82071432 
-0 1 0.0006298609251630767 1:-3.4856333 2:-0.3960113 
-1 1 1 1:-0.3506804 2:-0.29556736 
-1 0.7615992213496811 1 1:1.0747071 2:3.854365 
-1 1 1 1:-0.27350373 2:-0.27227055 
-0 0.03449663872485627 0 1:-1.9744349 2:-0.3110392 
-1 1 1 1:1.4141614 2:-0.24512394 
-0.6217302011795751 0.3300848277869179 0.9983835403595225 1:-2.8220128 2:4.5661436 
-1 1 1 1:-0.81819174 2:-0.28394016 
-1 1 1 1:0.8225614 2:-0.24855561 
-1 1 1 1:-0.65771125 2:-0.27491649 
-0 0 1 1:-2.5793034 2:-0.32609265 
-1 1 1 1:-0.30693731 2:-0.27415047 
-1 1 1 1:-0.24007015 2:-0.27039064 
-0.6123900782659607 0.4081498863414509 0.4952993845531671 1:-3.5514419 2:2.6011714 
-1 1 1 1:0.27118429 2:-0.26060095 
-0 1 0 1:-5.0898862 2:-0.44830123 
-1 1 1 1:1.3881059 2:-0.24670127 
-1 1 1 1:-0.14645611 2:-0.26512688 
-1 1 1 1:-0.36962561 2:-0.220803 
-1 1 1 1:-0.1397694 2:-0.26475089 
-1 1 1 1:0.34473887 2:-0.25646521 
-0.1189923704092132 0 1 1:-1.2224601 2:-0.28771397 
-0 0 1 1:-2.7135966 2:-0.37155831 
-1 1 1 1:0.39154588 2:-0.25383333 
-1 0 1 1:-0.88505891 2:-0.28769999 
-1 1 1 1:-0.38968576 2:-0.22193095 
-1 0 1 1:-0.79402252 2:1.3021714 
-1 0.2653707293476705 1 1:-0.83295709 2:3.6852367 
-0.709589286672702 1 0.5688370600473674 1:-5.1099464 2:-0.44942918 
-1 0 1 1:-1.0570855 2:-0.25999043 
-1 1 1 1:-0.26681701 2:-0.27189457 
-1 0 1 1:-1.1093437 2:-0.31926838 
-1 1 1 1:-1.1828976 2:-0.32340419 
-0 0 1 1:-2.6868497 2:-0.37005438 
-0 0 1 1:-2.72697 2:-0.37231028 
-0.1431471046113758 1 1 1:-3.445513 2:-0.3937554 
-1 1 1 1:1.0134057 2:-0.2188664 
-1 1 1 1:0.3581123 2:-0.25571324 
-0 1 0 1:-1.9482466 2:-0.34748131 
-0 1 0 1:-1.7470859 2:-0.29825585 
-1 1 1 1:-0.38915719 2:-0.067759734 
-1 1 1 1:-3.0236907 2:-0.33212251 
-0 1 0 1:-1.4431204 2:-0.30012156 
-1 1 1 1:-0.3506804 2:-0.29556736 
-0.6262838357811078 0 1 1:-2.7762829 2:-0.31821106 
-0 1 0 1:-1.868006 2:-0.34296951 
-1 1 1 1:0.25781085 2:-0.26135291 
-1 1 1 1:-0.34004319 2:-0.17019698 
-0 1 0 1:-1.96162 2:-0.34823327 
-0 1 1 1:-3.4588865 2:-0.39450737 
-0 1 0 1:-4.3245362 2:-0.42422423 
-0.7374797113728891 0.8441294755975416 0.6489602412660429 1:-0.54033167 2:6.6390803 
-0 0 1 1:-2.5391831 2:-0.32383675 
-1 1 1 1:0.25112414 2:-0.2617289 
-0 1 0 1:-3.4990068 2:-0.39676326 
-1 1 1 1:-0.17320298 2:-0.26663081 
-1 0.3011975606915194 1 1:-1.727988 2:0.96636003 
-0 1 0 1:-1.9482466 2:-0.34748131 
-1 0.7032435982907019 1 1:-0.38789761 2:0.1797893 
-1 1 1 1:-0.14645611 2:-0.26512688 
-1 1 1 1:-0.37742727 2:-0.29707129 
-0 1 0 1:-1.7938929 2:-0.30088773 
-1 0 1 1:-0.99761292 2:-0.21819994 
-0 1 0 1:-1.767146 2:-0.2993838 
-0 1 0 1:-1.720339 2:-0.29675192 
-0 1 0 1:-1.4163735 2:-0.29861762 
-0 1 0 1:-1.854074 2:-0.3042715 
-1 0 1 1:-0.87168547 2:-0.28694802 
-1 0 1 1:-0.85162532 2:-0.28582007 
-1 1 1 1:0.24499882 2:-0.22415914 
-0 1 0 1:-4.4114635 2:-0.42911201 
-1 1 1 1:0.25781085 2:-0.26135291 
-0 0.2542191401560409 0.4646894981983268 1:-2.6626337 2:0.051628216 
-1 1 1 1:-0.64433781 2:-0.27416452 
-1 0.8362314050336709 1 1:-1.1360906 2:-0.32077231 
-1 -1 1 1:0.37454933 2:-0.27374625 
-0.01566746996733211 -1 1 1:-2.8030297 2:-0.31971499 
-1 -0 0.05499493537158216 1:2.1163732 2:-0.28926878 
-1 -0 1 1:0.91310644 2:-0.2245063 
-1 -0.6765630133945717 1 1:2.1208843 2:-0.2897477 
-1 -0 0 1:1.9089107 2:-0.27484494 
-1 -1 1 1:-3.5013559 2:-0.28977434 
-1 -1 1 1:-0.18657641 2:-0.26738277 
-1 -1 1 1:-2.8230899 2:-0.32084294 
-1 -1 1 1:2.1249069 2:-0.28908887 
-1 -1 1 1:-0.80481831 2:-0.28318819 
-1 -1 1 1:-0.83825189 2:-0.28506811 
-1 -1 1 1:-0.65771125 2:-0.27491649 
-1 -1 1 1:0.79581453 2:-0.25005954 
-0 -1 1 1:-1.7423554 2:-0.20878491 
-1 -1 1 1:0.3581123 2:-0.25571324 
-1 -1 1 1:0.33805215 2:-0.25684119 
-0 -1 0 1:-4.3245362 2:-0.42422423 
-1 -1 1 1:-1.1890265 2:-0.28583405 
-1 -1 1 1:-1.2024 2:-0.28658602 
-1 -0 1 1:0.80918558 2:-0.24930733 
-0 -1 1 1:-2.2516543 2:-0.30766948 
-1 -1 1 1:-0.4328674 2:-0.20540211 
-1 -0 0 1:1.2333007 2:-0.22592317 
-1 -0 0 1:2.112318 2:-0.28992413 
-1 -1 1 1:0.34111574 2:-0.27562617 
-0 -1 0 1:-5.1300065 2:-0.45055713 
-1 -1 1 1:2.1233214 2:-0.28892056 
-1 -1 1 1:0.42553753 2:-0.21400732 
-1 -1 1 1:1.0020831 2:0.17623405 
-1 -1 1 1:-1.0310465 2:-0.22007986 
-1 -0 0 1:1.1514102 2:-0.25089128 
-1 -1 1 1:-1.2358335 2:-0.28846594 
-1 -1 1 1:-0.28019044 2:-0.27264653 
-1 -0 0 1:1.9243107 2:-0.27322226 
-1 -1 1 1:-0.30025059 2:-0.27377448 
-1 -1 1 1:0.27118429 2:-0.26060095 
-0 -1 1 1:-1.9348731 2:-0.34672934 
-1 -1 1 1:-1.149464 2:-0.32152428 
-1 -1 1 1:1.0315002 2:5.5181307 
-1 -1 1 1:0.33805215 2:-0.25684119 
-0 -1 1 1:-1.9348731 2:-0.34672934 
-1 -1 1 1:-2.8498367 2:-0.32234687 
-1 -0 0 1:1.9072132 2:-0.27466473 
-1 -0 0 1:1.1379565 2:-0.25163472 
-1 -0 0 1:1.3537497 2:-0.24848324 
-1 -0 0 1:1.9197748 2:-0.27382658 
-1 -1 1 1:0.4121641 2:-0.21475929 
-0 -1 1 1:-4.2442956 2:-0.41971243 
-1 -1 1 1:-0.67108468 2:-0.27566846 
-0 -1 0.4479942746501017 1:-1.7470859 2:-0.29825585 
-1 -1 1 1:0.39210395 2:-0.21588724 
-1 -1 1 1:0.78912782 2:-0.25043553 
-1 -1 0 1:-5.2236206 2:-0.45582089 
-1 -0 0.9792728659836367 1:1.1248429 2:-0.25241428 
-1 -0 1 1:1.0134221 2:-0.21886814 
-1 -1 1 1:-0.1021584 2:-0.20576353 
-1 -1 1 1:-0.70451826 2:-0.27754837 
-0 -1 1 1:-2.211534 2:-0.30541358 
-0 -1 0 1:-4.3646565 2:-0.42648012 
-1 -1 1 1:-0.045601874 2:-0.22154055 
-1 -0 1 1:0.8693708 2:-0.24592398 
-1 -0 0 1:1.3798314 2:-0.24690869 
-1 -0 0 1:1.2937084 2:-0.22364932 
-1 -1 1 1:0.29849255 2:-0.22115128 
-0 -0.1611825153105836 0 1:-5.1032597 2:-0.4490532 
-1 -1 1 1:-0.65771125 2:-0.27491649 
-1 -0 0 1:1.1445767 2:-0.25125167 
-0 -1 0 1:-4.2844159 2:-0.42196833 
-0.1419164921240954 -1 1 1:-3.5123802 2:-0.39751523 
-1 -0 0 1:1.4010932 2:-0.2459083 
-1 -1 1 1:0.67601002 2:-0.21888097 
-0 -1 1 1:-1.3829399 2:-0.29673771 
-1 -1 1 1:-0.66439796 2:-0.27529247 
-0 -0.5916206430769001 0 1:-4.3980901 2:-0.42836004 
-0.002455191293423657 -1 1 1:-1.3294462 2:-0.29372985 
-1 -1 1 1:-1.2157734 2:-0.28733799 
-1 -1 1 1:0.76237857 2:-0.25193921 
-1 -1 1 1:-0.16651626 2:-0.26625482 
-1 -0 1 1:1.1246697 2:-0.25239588 
-1 -1 1 1:-0.37742727 2:-0.29707129 
-1 -1 1 1:0.24443742 2:-0.26210488 
-1 -1 1 1:0.4589752 2:-0.21212784 
-1 -0 1 1:0.82256617 2:-0.24855612 
-1 -0 1 1:0.87298614 2:-0.2267622 
-1 -0 1 1:0.88635957 2:-0.22601023 
-1 -0 0 1:1.1996246 2:-0.22777734 
-1 -0 0 1:2.1112883 2:-0.28981481 
-1 -1 1 1:-0.15982955 2:-0.26587884 
-1 -1 1 1:0.27118429 2:-0.26060095 
-1 -1 1 1:-0.83825189 2:-0.28506811 
-1 -1 1 1:-0.14645611 2:-0.26512688 
-0 -1 0.9244734735858084 1:-4.257669 2:-0.4204644 
-0.01743850472685676 -1 0 1:-5.1634401 2:-0.45243704 
-1 -0 1 1:0.91311698 2:-0.22450742 
-1 -0.360558466848148 1 1:0.80250125 2:-0.24968356 
-1 -0 0 1:1.3080299 2:-0.222998 
-1 -0 0 1:1.273779 2:-0.22479115 
-1 -1 1 1:0.4645975 2:-0.10607922 
-1 -0 0 1:1.3738766 2:-0.24736237 
-1 -0 0 1:1.2065116 2:-0.22742263 
-1 -0 0 1:1.3876029 2:-0.24664787 
-0 -1 0 1:-1.7270257 2:-0.2971279 
-1 -0 1 1:0.99334558 2:-0.21999435 
-1 -0 0 1:1.3073434 2:-0.22292512 
-1 -1 0.8484983409878956 1:1.0289025 2:6.2380146 
-0 -1 1 1:-2.796343 2:-0.31933901 
-1 -0 0 1:1.2586838 2:-0.22536033 
-1 -1 1 1:0.55564912 2:-0.22564866 
-0 -0.9882919453467294 0 1:-4.3980901 2:-0.42836004 
-1 -0 0 1:1.3873907 2:-0.24662534 
-1 -0 0 1:1.9159453 2:-0.2745059 
-1 -1 1 1:-1.2157734 2:-0.28733799 
-1 -1 1 1:-0.42311934 2:-0.22381086 
-1 -1 1 1:0.37148573 2:-0.25496128 
-1 -0 0 1:1.9163565 2:-0.27454955 
-0 -1 1 1:-1.8546325 2:-0.34221755 
-1 -0 0 1:1.3747993 2:-0.24746033 
-0 -1 -1 1:-2.5057495 2:-0.32195683 
-1 -0 -1 1:0.45284316 2:-0.17455737 
-1 -0 -0.1421770499418555 1:-0.49745408 2:4.8705398 
-1 -1 -1 1:-1.4230602 2:-0.29899361 
-1 -1 -1 1:-2.8698969 2:-0.32347482 
-1 -0 -1 1:0.67601002 2:-0.21888097 
-1 -1 -0 1:-0.16902148 2:-0.20952379 
-1 -0 -1 1:0.62307505 2:-0.18394282 
-1 -1 -1 1:-0.62427766 2:-0.27303658 
-0 -1 -1 1:-2.2850879 2:-0.3095494 
-1 -1 -0.9280865050796796 1:-0.014668231 2:-0.16293017 
-1 -1 -1 1:0.24499882 2:-0.22415914 
-1 -1 -1 1:-0.70339595 2:-0.20165685 
-1 -1 -1 1:0.11488459 2:-0.21251752 
-1 -0 -1 1:0.80668037 2:-0.19257629 
-1 -1 -0 1:-0.11552774 2:-0.20651593 
-0 -1 -1 1:-2.56593 2:-0.32534068 
-1 -1 -1 1:0.17562381 2:-0.17118766 
-0 -1 -1 1:-2.0145552 2:-0.31329509 
-1 -0.6913463804029519 -1 1:0.7094436 2:-0.21700105 
-0 -1 -1 1:-1.9878084 2:-0.31179116 
-1 -1 -0 1:-0.1021584 2:-0.20576353 
-1 -1 -1 1:1.219611 2:-0.22664156 
-1 -0 -1 1:0.44560177 2:-0.21287981 
-1 -1 -1 1:-0.0012947977 2:-0.1621782 
-0.8618034476565748 -1 -0 1:-0.86031093 2:5.1153794 
-1 -1 -1 1:-0.045601874 2:-0.22154055 
-1 -1 -0 1:-0.19576834 2:-0.21102772 
-0 -1 -1 1:-3.110618 2:-0.33701029 
-1 -0 -1 1:0.8200538 2:-0.19182433 
-1 -1 -1 1:-0.31362403 2:-0.27452645 
-0.7701862607555229 -1 -1 1:-3.1507383 2:-0.33926618 
-1 -1 -1 1:-0.37268695 2:-0.20201826 
-1 -1 -1 1:0.0053919188 2:-0.16180222 
-0 -1 -0.08702072810090723 1:-3.0170039 2:-0.33174652 
-0 -0.8671564923470589 -0 1:-1.1915389 2:4.9549721 
-1 -1 -1 1:-1.0377332 2:-0.22045584 
-1 -1 -1 1:-0.088784963 2:-0.20501156 
-1 -0 -1 1:1.4208335 2:-0.248004 
-1 -1 -1 1:1.8111275 2:-0.25034769 
-1 -1 -1 1:-0.70339595 2:-0.20165685 
-1 -0 -1 1:0.56902255 2:-0.2248967 
-1 -0 -1 1:0.7094436 2:-0.21700105 
-1 -1 -1 1:0.42135634 2:-0.27111437 
-1 -1 -1 1:0.21825195 2:-0.22566307 
-1 -1 -1 1:-0.79032735 2:-0.20654419 
-1 -1 -1 1:-0.66996236 2:-0.19977693 
-1 -1 -1 1:-0.72708292 2:-0.22194536 
-1 -1 -1 1:1.7961397 2:-0.25201414 
-1 -1 -1 1:0.17505687 2:-0.20913281 
-1 -1 -1 1:-0.33368418 2:-0.2756544 
-1 -1 -1 1:-0.83825189 2:-0.28506811 
-1 -1 -1 1:1.006719 2:-0.21924239 
-1 -1 -1 1:-0.7702672 2:-0.20541624 
-1 -1 -0 1:-0.39965879 2:1.4519427 
-1 -1 -1 1:-0.47967441 2:-0.20803399 
-1 -0 -0 1:-0.19929674 2:2.6939091 
-1 -1 -1 1:0.25586441 2:-0.16667586 
-1 -1 -1 1:0.15499672 2:-0.21026076 
-1 -0 -1 1:0.47234863 2:-0.21137588 
-1 -1 -0 1:-0.028041664 2:-0.16368213 
-1 -0 -1 1:1.3397265 2:-0.20573155 
-0 -1 -1 1:-1.9944951 2:-0.31216714 
-0.4319455627979537 -1 -1 1:-2.8364633 2:-0.32159491 
-1 -1 -1 1:-0.76358048 2:-0.20504026 
-1 -1 -1 1:0.86267791 2:-0.24629931 
-1 -1 -1 1:-0.23031951 2:-0.28879966 
-1 -1 -1 1:-0.39943381 2:-0.2035222 
-1 -1 -1 1:1.7806326 2:-0.25036786 
-1 -1 -0 1:-0.13559198 2:-0.20764344 
-1 -1 -1 1:0.86710089 2:5.1069144 
-1 -1 -1 1:0.38123604 2:-0.27337027 
-0 -1 -0.7291814891748072 1:-1.1744692 2:5.39721 
-1 -0.9264155743717111 -0.4343077401602229 1:-1.1682402 2:3.8938551 
-1 -1 -1 1:0.7094436 2:-0.21700105 
-1 -0 -1 1:0.58239599 2:-0.22414473 
-1 -0 -1 1:0.50578221 2:-0.20949596 
-1 -1 -1 1:-0.75382979 2:-0.22344929 
-1 -1 -1 1:-0.43955411 2:-0.20577809 
-1 -1 -1 1:-3.1774851 2:-0.34077012 
-0 -1 -1 1:-3.1173047 2:-0.33738627 
-1 -1 -1 1:-1.0845402 2:-0.22308772 
-0 -1 -1 1:-3.1440516 2:-0.3388902 
-0 -1 -1 1:-1.9744349 2:-0.3110392 
-1 -1 -1 1:-1.2960126 2:-0.29184993 
-1 -1 -1 1:-0.6777714 2:-0.27604444 
-1 -1 -0.8046359267384978 1:0.80871059 2:2.4591994 
-1 -1 -0.5090799988316713 1:-1.084271 2:1.5941421 
-1 -1 -1 1:0.40129619 2:-0.27224232 
-1 -0.4156329026422382 -1 1:1.2313298 2:-0.2072542 
-1 -0.4833854002269379 -1 1:0.43222833 2:-0.21363177 
-1 -1 -0 1:-0.12221855 2:-0.20689148 
-1 -1 -0.4539744157308681 1:-0.34594008 2:-0.20051433 
-1 -0 -1 1:0.58239599 2:-0.22414473 
-1 -0.9526309168397072 -0.166770036820515 1:-0.49213346 2:3.4085557 
-0.4918221330220921 -0.2249391074487623 -0 1:-0.74822902 2:2.1451343 
-1 -1 -1 1:-0.73014281 2:-0.20316078 
