svm_type c_svc
kernel_type rbf
gamma 8
nr_class 4
total_sv 446
rho 5.3371 1.13296 -0.247268 -0.658802 -11.1592 -12.4813
label 0 3 2 1
nr_sv 142 95 114 95
SV
0 0 2048 1:0.213691 2:-0.930359 
2048 0 2048 1:0.243248 2:-0.933746 
2048 0 2048 1:0.173657 2:-0.933008 
0 2048 0 1:0.343267 2:-0.93247 
0 2048 2048 1:0.346469 2:-0.932258 
2048 2048 0 1:0.460766 2:-0.940726 
0 0 2048 1:0.21209 2:-0.930465 
2048 2048 2048 1:0.312842 2:-0.934484 
4.399904692006681 0 0 1:0.58794 2:0.470001 
0 0 2048 1:0.134491 2:-0.930257 
0 2048 0 1:0.746829 2:-0.952291 
0 2048 0 1:0.469639 2:-0.934794 
0 226.9508408055835 2048 1:0.417663 2:-0.93289 
0 0 2048 1:0.0665004 2:-0.929413 
0 2048 0 1:0.74648 2:-0.952248 
0 0 397.1118403889819 1:0.557666 2:-0.934775 
1623.646977738669 0 0 1:0.99819 2:-0.980335 
0 2048 0 1:0.591368 2:-0.941435 
151.302793562808 0 0 1:-0.00517345 2:-0.782987 
0 863.8702463411548 0 1:0.555359 2:-0.934793 
0 0 2048 1:0.087319 2:-0.928035 
0 0 92.93739517583445 1:0.55908 2:-0.934645 
0 0 2048 1:0.352876 2:-0.931835 
0 2048 0 1:0.596236 2:-0.941125 
0 2048 2048 1:0.392041 2:-0.934586 
0 2048 0 1:0.747267 2:-0.95204 
0 2048 0 1:0.463234 2:-0.935218 
0 35.2466545914009 0 1:0.352875 2:-0.931835 
0 0 2048 1:0.35868 2:-0.915419 
2048 2048 2048 1:0.35988 2:-0.947403 
2048 0 2048 1:0.0584937 2:-0.929943 
0 2048 1.682751909378507 1:0.553858 2:-0.934911 
407.2265089232668 48.26500762049416 0 1:0.534138 2:-0.650589 
2048 2048 2048 1:0.312842 2:-0.934484 
0 0 66.92131863432492 1:0.569229 2:-0.929792 
0 2048 0 1:0.591214 2:-0.941416 
0 2048 0 1:0.591475 2:-0.941449 
0 2048 0.09557733644556728 1:0.533438 2:-0.936033 
0 0 2048 1:0.370491 2:-0.930669 
0 0 1668.175525236754 1:0.35868 2:-0.915419 
0 261.5523833866583 0 1:0.537652 2:-0.845068 
0 2048 0 1:0.744566 2:-0.952315 
0 2048 0 1:0.599731 2:-0.94095 
0 0 1848.904323342222 1:0.614331 2:-0.936346 
0 2048 1621.853007628243 1:0.393642 2:-0.93448 
0 0 2048 1:0.360883 2:-0.931305 
2048 2048 2048 1:0.238444 2:-0.934064 
0 2043.112309795436 2048 1:0.417663 2:-0.93289 
0 2041.205663581733 0 1:0.758595 2:-0.953149 
2048 2048 0 1:0.452762 2:-0.941256 
0 2048 0 1:0.709334 2:-0.94883 
0 2048 0 1:0.474446 2:-0.934476 
0 2048 0 1:0.555445 2:-0.934803 
0 2048 141.5085020458709 1:0.555456 2:-0.934805 
457.7185609875413 0 2048 1:0.210488 2:-0.930571 
0 0 2048 1:0.364085 2:-0.931093 
0 2048 2048 1:0.536636 2:-0.93582 
0 2048 2048 1:0.53509 2:-0.935933 
0 0 2048 1:0.15691 2:-0.928773 
0 0 2034.457783956295 1:0.35868 2:-0.915419 
2048 2048 2048 1:0.314443 2:-0.934378 
2048 1940.91055691528 2048 1:0.0816463 2:-0.933754 
0 0 2048 1:0.392175 2:-0.92389 
0 2048 1214.397923131271 1:0.348071 2:-0.932153 
276.0930384725187 0 0 1:0.278479 2:-0.931415 
318.5614455751149 14.51348002544325 0 1:0.987674 2:-0.979021 
0 36.14116372159639 0 1:0.891532 2:-0.967925 
0 2048 0 1:0.59613 2:-0.941112 
2048 2048 2048 1:0.331924 2:-0.943909 
2048 2048 2048 1:0.235241 2:-0.934276 
0 0 9.071614229308386 1:0.896929 2:-0.870999 
0 2048 0 1:0.533441 2:-0.936033 
0 2048 0 1:0.744196 2:-0.952268 
0 2048 0 1:0.463236 2:-0.935218 
0 2048 906.7444424456561 1:0.473576 2:-0.939878 
2048 433.1203244901304 2048 1:0.0552909 2:-0.930155 
2048 0 124.878178142332 1:0.272073 2:-0.931839 
0 2048 0 1:0.745982 2:-0.952186 
0 0 2048 1:0.61619 2:-0.936272 
0 0 2048 1:0.134491 2:-0.930257 
0 2048 0 1:0.744092 2:-0.952255 
1494.414609703245 2048 0 1:0.518648 2:-0.942755 
0 0 1883.038376296073 1:0.35868 2:-0.915419 
2048 2048 2048 1:0.211088 2:-0.946563 
0 1293.259337702246 0 1:0.352875 2:-0.931835 
1164.054670799423 0 0 1:0.399163 2:-0.610878 
0 0 2048 1:0.685815 2:-0.941912 
0 2048 2048 1:0.417663 2:-0.93289 
0 0 115.2349368274148 1:0.681154 2:-0.941942 
0 2048 0 1:0.589576 2:-0.941517 
2048 2048 2048 1:-0.426716 2:-0.962057 
0 0 2048 1:0.0793122 2:-0.928565 
2048 1200.942618677751 2048 1:0.241646 2:-0.933852 
0 0 2048 1:0.220095 2:-0.929935 
0 786.3614330659691 0 1:0.566863 2:-0.808535 
1096.368329138125 0 0 1:0.68049 2:-0.942165 
0 2048 1265.95694103188 1:0.550662 2:-0.935124 
0 2048 0 1:0.460031 2:-0.93543 
0 2048 38.65853924557173 1:0.416061 2:-0.932996 
2048 2048 2048 1:0.335126 2:-0.943697 
897.6632890050339 0 0 1:0.146955 2:-0.738895 
2048 2048 0 1:0.451158 2:-0.941361 
0 0 2048 1:0.684387 2:-0.94204 
2048 2048 0 1:0.455963 2:-0.941044 
0 0 1919.614090162841 1:0.365086 2:-0.914995 
0 0 94.84284751649152 1:0.283472 2:-0.68347 
2048 2048 2048 1:-0.285063 2:-0.958025 
0 2048 0.8140472874839499 1:0.463234 2:-0.935218 
2048 2048 2048 1:0.460767 2:-0.940726 
0 2048 0 1:0.54141 2:-0.935498 
472.8191728266128 2048 0 1:0.606172 2:-0.94053 
1847.869171662679 0 2048 1:0.0648991 2:-0.929519 
8.920427091299828 0 0 1:0.136149 2:0.218196 
2048 2048 958.1309948430871 1:0.463969 2:-0.940514 
0 0 71.82725447112981 1:0.469083 2:0.436271 
0 0 201.7179004303797 1:0.393776 2:-0.923784 
0 0 288.4250815295671 1:0.759414 2:-0.952946 
0 0 679.9062261307613 1:0.224899 2:-0.929617 
2048 2048 2048 1:0.0768423 2:-0.934072 
2048 2048 2048 1:-0.425115 2:-0.961951 
184.4827134332838 2048 0 1:0.705725 2:-0.948991 
0 0 707.4701711503395 1:0.354476 2:-0.931729 
1775.48520749262 0 2048 1:0.0648991 2:-0.929519 
0 0 2048 1:0.139295 2:-0.929939 
2048 2048 2048 1:0.312842 2:-0.934484 
0 0 0.1982991823330836 1:0.39858 2:-0.923466 
0 0 2048 1:0.147302 2:-0.929409 
2048 2048 2048 1:0.232038 2:-0.934488 
0 0 2048 1:0.137694 2:-0.930045 
0 0 2048 1:0.218495 2:-0.930041 
0 0 2048 1:0.221697 2:-0.929829 
0 0 2048 1:0.148903 2:-0.929303 
0 2048 0 1:0.744648 2:-0.952325 
0 2048 0 1:0.583218 2:-0.941029 
2.454680312601552 29.6745978924629 174.3812499256462 1:0.473612 2:0.623211 
2048 0 0 1:0.273675 2:-0.931733 
0 2048 477.1438674898585 1:0.393642 2:-0.93448 
4.331245525375963 0.8085339271847521 20.48484381840143 1:0.053931 2:0.294188 
0 0 139.4394599969809 1:0.156701 2:-0.367863 
0 0 2048 1:0.558598 2:-0.934585 
687.4325069054356 269.9676042085986 0 1:0.397859 2:-0.71292 
2048 0 2048 1:0.205684 2:-0.930889 
-2048 2048 2048 1:0.436746 2:-0.942315 
-0 2048 0 1:-0.971176 2:-0.998092 
-0 2048 0 1:-0.958365 2:-0.997244 
-2048 2048 2048 1:0.222298 2:-0.945821 
-0 2048 0 1:-0.289867 2:-0.958343 
-0 2048 2048 1:0.0502193 2:-0.951866 
-0 2048 2048 1:-0.484365 2:-0.965872 
-2048 2048 2048 1:0.397997 2:-0.910058 
-0 0 1085.968218959009 1:-0.410103 2:-0.976989 
-2048 2048 2048 1:0.317646 2:-0.934166 
-0 0.2790251985767778 0 1:-0.816631 2:0.29176 
-2048 2048 2048 1:0.446353 2:-0.941679 
-0 2048 0 1:-0.0866294 2:-0.95558 
-2048 2048 2048 1:0.319113 2:-0.944757 
-0 459.8247729156543 0 1:-0.586985 2:-0.983352 
-0.2644331454103362 0.4061462204349345 2048 1:0.0584489 2:0.567709 
-2048 2048 0 1:0.350272 2:-0.948039 
-0 2048 0 1:-0.0546027 2:-0.95346 
-0 1482.634878907264 2048 1:-0.169032 2:-0.95569 
-0 2048 0 1:-0.046596 2:-0.95293 
-0 2048 0 1:-0.0914335 2:-0.955898 
-2048 738.2154668297801 2048 1:0.148507 2:-0.909748 
-2048 0 27.08178351883586 1:0.988438 2:-0.979117 
-0 1294.714762178758 2048 1:-0.355523 2:-0.962689 
-0 2048 0 1:0.183865 2:-0.948365 
-583.1773965611362 587.8427558969279 2048 1:0.0934556 2:-0.949004 
-2048 0 15.67827217175095 1:0.423425 2:-0.640154 
-580.3137681495327 1093.95829933251 952.0539269588596 1:-0.283462 2:-0.957919 
-0 317.425341556178 0 1:0.166984 2:-0.954826 
-1.677917813837832 0.5129700605449511 8.627136262940658 1:0.50834 2:0.215009 
-0 2048 0 1:0.185467 2:-0.948259 
-0 0.06826982382027864 0 1:-0.42673 2:0.344169 
-2048 2048 2048 1:0.589633 2:-0.940606 
-0 0.1309840881173779 5.997307930111202 1:-0.424857 2:0.415655 
-0 2048 2048 1:0.0550233 2:-0.951548 
-2048 2048 2048 1:0.447955 2:-0.941573 
-0 2048 2048 1:-0.347516 2:-0.962159 
-2048 57.41552415459032 2048 1:0.0934556 2:-0.949004 
-2048 0 2048 1:-0.366732 2:-0.963431 
-208.3209858166353 2.710952643413385 0 1:-0.211579 2:-0.841496 
-0 2048 0 1:0.17746 2:-0.948788 
-0 2048 549.7285225276596 1:0.193473 2:-0.947729 
-0 0.05065950879557998 0 1:-0.599542 2:-0.138257 
-2048 2048 2048 1:0.31591 2:-0.944969 
-0 2048 0 1:-0.967973 2:-0.99788 
-2048 2048 2048 1:0.583393 2:-0.941051 
-130.1344542076172 2048 2048 1:0.215892 2:-0.946245 
-2048 2048 2048 1:0.162447 2:-0.93375 
-2048 2048 2048 1:0.217494 2:-0.946139 
-2048 2048 2048 1:0.333525 2:-0.943803 
-0 2048 2048 1:-0.0417919 2:-0.952612 
-2048 2048 2048 1:0.344734 2:-0.943061 
-0 2048 0 1:0.0390098 2:-0.952608 
-2048 2048 2048 1:0.157643 2:-0.934068 
-75.27047941205723 0 0 1:0.0608114 2:-0.504435 
-6.800547699820192 0.1284236319949238 114.8774963454766 1:0.0514873 2:0.167333 
-0 2048 0 1:-0.972777 2:-0.998198 
-2048 2048 2048 1:-0.00218756 2:-0.944797 
-0 2048 0 1:0.187068 2:-0.948153 
-0 2048 0 1:-0.0147025 2:-0.961507 
-0 0 775.2978843279648 1:-0.574174 2:-0.982504 
-2048 2048 2048 1:0.493659 2:-0.933204 
-2048 2048 2048 1:0.336728 2:-0.943591 
-0 2048 2048 1:-0.167431 2:-0.955584 
-2048 0 2048 1:0.15777 2:-0.890608 
-875.3308429280545 2048 2048 1:-0.473155 2:-0.96513 
-0 2048 0 1:-0.288266 2:-0.958237 
-0 2048 0 1:-0.0946362 2:-0.95611 
-0 434.0759292358252 0 1:0.166984 2:-0.954826 
-2048 641.3387112718877 2048 1:-0.413905 2:-0.961209 
-2048 2048 1422.636275876706 1:0.312707 2:-0.945181 
-2048 2048 2048 1:0.169532 2:-0.919485 
-0 853.4733902661552 0 1:-0.218808 2:-0.969672 
-0 2048 0 1:-0.784685 2:-0.991093 
-0 0.7386373314918757 0 1:0.121566 2:1 
-218.0765102094006 0 2048 1:-0.357124 2:-0.962795 
-2048 2048 0 1:0.311106 2:-0.945287 
-0 1756.677579175753 0 1:-0.586985 2:-0.983352 
-0 2048 2048 1:0.209487 2:-0.946669 
-0 2048 0 1:-0.299475 2:-0.958979 
-2048 0 150.3327944181996 1:0.158071 2:-0.820826 
-2003.877917904157 2048 2048 1:0.215892 2:-0.946245 
-0 0 538.7554072536234 1:-0.17864 2:-0.956325 
-2048 2048 2048 1:0.0120551 2:-0.933016 
-0 0 2048 1:-0.172235 2:-0.955902 
-0 2048 2048 1:-0.161025 2:-0.95516 
-0 2048 0 1:-0.0882308 2:-0.955686 
-0 2048 0 1:0.0422125 2:-0.952396 
-0 2048 350.3058873876878 1:0.0470166 2:-0.952078 
-2048 2048 2048 1:0.309639 2:-0.934696 
-0 2048 0 1:-0.805503 2:-0.992471 
-2048 2048 0.4886113180524618 1:0.312707 2:-0.945181 
-0 147.3747393908064 220.0464294702543 1:-0.386688 2:-0.856954 
-2048 0 2048 1:0.0966583 2:-0.948792 
-0 2048 0 1:-0.0211079 2:-0.961931 
-1247.252021802201 -2048 1496.58662900997 1:0.340664 2:-0.948675 
-2048 -2048 2048 1:-0.420311 2:-0.961633 
-2048 -0 0 1:0.7578 2:-0.95305 
-2048 -0 2048 1:0.469639 2:-0.934794 
-2048 -0 0 1:0.758881 2:-0.953185 
-2048 -0 0 1:0.708117 2:-0.948984 
-0 -377.1239905672694 47.85529008475454 1:-0.587548 2:-0.953193 
-0 -2048 0 1:-0.942351 2:-0.996184 
-0 -2048 0 1:0.206284 2:-0.946881 
-283.8950760057375 -2048 2048 1:-0.425115 2:-0.961951 
-2048 -49.36764217901334 0 1:0.759844 2:-0.952999 
-0 -2048 0 1:0.058226 2:-0.951336 
-0 -2048 0 1:0.0502193 2:-0.951866 
-0 -2048 2048 1:0.0934556 2:-0.949004 
-2048 -0 0 1:0.44155 2:-0.941997 
-0 -2048 2048 1:-0.166298 2:-0.930362 
-2048 -2048 2048 1:0.336728 2:-0.943591 
-2048 -2048 2048 1:0.331924 2:-0.943909 
-0 -2048 2048 1:-0.0337851 2:-0.952082 
-0 -2048 2048 1:-0.0369878 2:-0.952294 
-2048 -0 0 1:0.444752 2:-0.941785 
-1577.055547128727 -2048 2048 1:-0.288266 2:-0.958237 
-2048 -2048 2048 1:0.147302 2:-0.929409 
-2048 -0 0 1:0.54632 2:-0.935194 
-2048 -0 0 1:0.756829 2:-0.953235 
-0 -2048 0 1:0.332657 2:-0.949204 
-0 -2048 0 1:-0.977581 2:-0.998516 
-2048 -0 0 1:0.759464 2:-0.952952 
-2048 -2048 2048 1:0.352875 2:-0.931835 
-2048 -75.03118347199832 352.6625210307858 1:0.490947 2:-0.821828 
-2048 -2048 2048 1:0.00404832 2:-0.933546 
-2048 -2048 0 1:0.526709 2:-0.942232 
-0 -2048 0 1:-0.0449946 2:-0.952824 
-0 -2048 0 1:0.183865 2:-0.948365 
-2048 -0 2048 1:0.711805 2:-0.948527 
-0 -2048 0 1:0.179061 2:-0.948682 
-2048 -2048 2048 1:0.31591 2:-0.944969 
-0 -2048 2048 1:-0.212402 2:-0.969248 
-0 -2048 0 1:-0.0243106 2:-0.962143 
-28.58956173927525 -1.136758042591131 0 1:0.497992 2:0.684013 
-2048 -2048 2048 1:0.331924 2:-0.943909 
-0 -2048 2048 1:-0.212402 2:-0.969248 
-0 -2048 2048 1:-0.43152 2:-0.962375 
-2048 -0 343.4570721089135 1:0.70771 2:-0.948933 
-2048 -130.634953847794 0 1:0.523487 2:-0.942441 
-2048 -1254.162942466126 0 1:0.575165 2:-0.941553 
-2048 -0 2048 1:0.710719 2:-0.948697 
-2048 -2048 2048 1:0.349672 2:-0.932047 
-0 -690.3279468715205 0 1:-0.765469 2:-0.989821 
-0 -2048 2048 1:0.0902529 2:-0.949216 
-0 -2048 812.3525917185269 1:-0.167431 2:-0.955584 
-2048 -2048 2048 1:0.344868 2:-0.932364 
-2048 -0 0 1:0.439948 2:-0.942103 
-2048 -908.0474274251753 0 1:0.520346 2:-0.942661 
-2048 -0 2048 1:0.493663 2:-0.933205 
-2048 -2048 2048 1:0.226501 2:-0.929511 
-0 -2048 428.6172449501573 1:0.0822461 2:-0.949746 
-0 -2048 2048 1:-0.278658 2:-0.957601 
-2048 -2048 2048 1:0.240045 2:-0.933958 
-2048 -0 0 1:0.459165 2:-0.940832 
-2048 -0 0 1:0.581412 2:-0.941109 
-2048 -0 2048 1:0.560787 2:-0.934553 
-2048 -2048 2048 1:0.32245 2:-0.933848 
-0 -2048 0 1:-0.971176 2:-0.998092 
-0 -2048 2048 1:0.0934556 2:-0.949004 
-2048 -2048 0 1:0.525072 2:-0.942333 
-0 -2048 959.7185539676811 1:-0.590188 2:-0.983564 
-2048 -0 0 1:0.586503 2:-0.940827 
-2048 -0 2048 1:0.412859 2:-0.933208 
-0 -2048 0 1:-0.080224 2:-0.955156 
-0 -2048 2048 1:0.0918542 2:-0.94911 
-5.105976725371037 -1876.523022816022 0 1:-0.8023 2:-0.992259 
-0 -2048 0 1:-0.0674132 2:-0.954308 
-0 -2048 0 1:-0.0401905 2:-0.952506 
-2048 -0 0 1:0.433542 2:-0.942527 
-0 -2048 0 1:0.211088 2:-0.946563 
-2048 -0 0 1:0.520305 2:-0.942656 
-0 -2048 0 1:0.160579 2:-0.95525 
-2048 -2048 2048 1:0.309504 2:-0.945393 
-2048 -2048 2048 1:0.360883 2:-0.931305 
-2048 -0 0 1:0.447956 2:-0.941574 
-2048 -0 2048 1:0.460031 2:-0.93543 
-2048 -0 2048 1:0.463234 2:-0.935218 
-2048 -0 0 1:0.538255 2:-0.935716 
-2048 -0 0 1:0.756583 2:-0.953204 
-191.8937685999514 -2048 264.9524756274618 1:0.21269 2:-0.946457 
-2048 -2048 2048 1:0.31591 2:-0.944969 
-0 -2048 0 1:0.0502193 2:-0.951866 
-2048 -2048 2048 1:0.215892 2:-0.946245 
-0 -1934.865976659082 0 1:-0.985588 2:-0.999046 
-2048 -0 2048 1:0.469642 2:-0.934794 
-2048 -0 0 1:0.443151 2:-0.941891 
-2048 -1978.141448846997 2048 1:0.564216 2:-0.934369 
-2048 -0 2048 1:0.556014 2:-0.934874 
-2048 -0 2048 1:0.362229 2:-0.90141 
-2048 -0 0 1:0.579985 2:-0.941237 
-2048 -0 0 1:0.539904 2:-0.935616 
-2048 -0 0 1:0.583273 2:-0.941036 
-0 -2048 0 1:-0.162627 2:-0.955266 
-2048 -0 2048 1:0.488855 2:-0.933522 
-2048 -221.1405809954707 2048 1:0.564052 2:-0.934348 
-0 -1.109527272469671 0 1:0.49737 2:0.886943 
-2048 -2048 2048 1:-0.418709 2:-0.961527 
-2048 -0 1872.031534676687 1:0.552399 2:-0.935035 
-2048 -705.1372700154169 2048 1:0.384034 2:-0.935116 
-0.1108047478734034 -1715.247548142318 0 1:-0.8023 2:-0.992259 
-2048 -0 0 1:0.583222 2:-0.941029 
-2048 -0 0 1:0.709801 2:-0.948889 
-0 -2048 243.018801991576 1:-0.0401905 2:-0.952506 
-2048 -2048 2048 1:0.149636 2:-0.934598 
-2048 -2048 2048 1:0.33993 2:-0.943379 
-2048 -0 0 1:0.7099 2:-0.948901 
-0 -2048 1529.103834308395 1:-0.193186 2:-0.967976 
-2048 -0 0 1:0.580206 2:-0.941265 
-1870.263242975824 -2048 -2048 1:-0.349117 2:-0.962265 
-2048 -0 -0 1:0.359414 2:-0.920714 
-0 -242.9610096814876 -0 1:0.131834 2:0.501462 
-0 -2048 -2048 1:-0.0898321 2:-0.955792 
-1237.725364664553 -2048 -0 1:-0.436324 2:-0.962693 
-2048 -2048 -2048 1:0.412859 2:-0.933208 
-2048 -2048 -2048 1:0.210488 2:-0.930571 
-2048 -0 -333.1199255528311 1:0.400182 2:-0.92336 
-781.4780060693696 -2048 -2048 1:0.101462 2:-0.948474 
-731.150012774779 -2048 -2048 1:-0.296273 2:-0.958767 
-2048 -0 -0 1:0.247453 2:-0.917436 
-2048 -2048 -2048 1:0.309639 2:-0.934696 
-2048 -0 -0 1:0.0825149 2:-0.928353 
-2048 -2048 -2048 1:0.278479 2:-0.931415 
-2048 -0 -2048 1:0.444152 2:-0.925793 
-2048 -1049.655879634582 -0 1:0.223299 2:-0.929723 
-0 -2048 -2048 1:-0.363529 2:-0.963219 
-2048 -0 -0 1:0.293025 2:-0.919764 
-0 -2048 -2048 1:-0.231485 2:-0.959823 
-2048 -0 -2048 1:0.420865 2:-0.932678 
-0 -2048 -2048 1:-0.225079 2:-0.959399 
-2048 -0 -0 1:0.226501 2:-0.929511 
-2048 -2048 -2048 1:0.543042 2:-0.935396 
-2048 -0 -2048 1:0.35768 2:-0.931517 
-2048 -0 -0 1:0.250656 2:-0.917224 
-0 -1840.201018477301 -0 1:0.0449365 2:0.57048 
-2048 -2048 -2048 1:0.240045 2:-0.933958 
-2048 -2048 -2048 1:0.204083 2:-0.930995 
-0 -2048 -0 1:-0.493973 2:-0.966508 
-2048 -0 -2048 1:0.447355 2:-0.925581 
-2048 -2048 -2048 1:0.175858 2:-0.948894 
-0 -0 -1652.704245214269 1:-0.503581 2:-0.967144 
-2048 -0 -0 1:0.161714 2:-0.928455 
-2048 -0 -0 1:0.252257 2:-0.917118 
-0 -2048 -0 1:-0.471554 2:-0.965024 
-2.290789513939296 -0 -0 1:-0.0343868 2:0.525262 
-1815.300773006942 -2048 -1342.643299787749 1:0.00244697 2:-0.933652 
-2048 -0 -0 1:0.229704 2:-0.929299 
-2048 -2048 -2048 1:0.591231 2:-0.941418 
-2048 -0 -2048 1:0.684699 2:-0.942079 
-2048 -0 -0 1:0.0825149 2:-0.928353 
-2048 -2048 -2048 1:0.387237 2:-0.934904 
-2048 -0 -2048 1:0.420865 2:-0.932678 
-2048 -2048 -2048 1:0.351873 2:-0.947933 
-2048 -2048 -2048 1:0.303233 2:-0.93512 
-2048 -1281.093587471045 -0 1:0.0616964 2:-0.929731 
-2048 -0 -0 1:0.0905217 2:-0.927823 
-2048 -2048 -437.3417050274309 1:0.0768423 2:-0.934072 
-2048 -0 -2048 1:0.68111 2:-0.942548 
-2048 -0 -0 1:0.292889 2:-0.93046 
-2048 -2048 -2048 1:0.171054 2:-0.949212 
-0 -2048 -2048 1:0.0502193 2:-0.951866 
-2048 -2048 -2048 1:0.492058 2:-0.93331 
-2048 -0 -0 1:0.0665004 2:-0.929413 
-135.5425623623762 -63.17530328286274 -20.119006799438 1:0.155255 2:-0.462216 
-2048 -2048 -0 1:0.136092 2:-0.930151 
-13.6774558394504 -0 -0 1:0.203238 2:-0.112114 
-2048 -0 -0 1:0.312241 2:-0.918492 
-2048 -0 -424.3643836981778 1:0.288085 2:-0.930778 
-2048 -0 -2048 1:0.364085 2:-0.931093 
-2048 -0 -0 1:0.24425 2:-0.917648 
-2048 -0 -2048 1:0.571807 2:-0.929502 
-0 -2048 -2048 1:-0.226681 2:-0.959505 
-2048 -2048 -2048 1:-0.428317 2:-0.962163 
-2048 -0 -0 1:0.0681018 2:-0.929307 
-2048 -2048 -2048 1:0.457562 2:-0.940937 
-2048 -2048 -2048 1:0.195808 2:-0.952918 
-2048 -0 -0 1:0.155309 2:-0.928879 
-2048 -496.8998882274552 -2048 1:0.677396 2:-0.942084 
-2048 -2048 -0 1:0.218494 2:-0.930041 
-235.0932595541937 -17.92227654974386 -11.39447846556762 1:0.458621 2:0.568094 
-2048 -2048 -2048 1:0.342265 2:-0.948569 
-0 -0 -9.659879073885749 1:-0.0302989 2:0.649926 
-15.01236250132784 -41.69066550260106 -9.1552094917731 1:-0.0288072 2:0.226141 
-2048 -0 -2048 1:0.420865 2:-0.932678 
-2048 -2048 -2048 1:0.39044 2:-0.934692 
-2048 -0 -2048 1:0.372092 2:-0.930563 
-2048 -2048 -2048 1:0.0704369 2:-0.934496 
-2048 -2048 -0 1:0.1457 2:-0.929515 
-2.480275768882396 -0 -2048 1:-0.509986 2:-0.967568 
-0 -1043.090984059092 -0 1:-0.495574 2:-0.966614 
-0 -2048 -2048 1:-0.0087625 2:-0.934394 
-0 -2048 -2048 1:-0.221877 2:-0.959187 
-0 -2048 -2048 1:-0.0594064 2:-0.953778 
-0 -2048 -2048 1:0.0886515 2:-0.949322 
-12.05540940624585 -0 -13.24223788919757 1:0.444638 2:-0.178277 
-2048 -2048 -2048 1:0.347069 2:-0.948251 
-2048 -77.79374799028261 -2048 1:0.545848 2:-0.929931 
-2048 -0 -2048 1:0.354477 2:-0.931729 
-2048 -2048 -0 1:0.221697 2:-0.929829 
-2048 -0 -0 1:0.168119 2:-0.928031 
-2048 -2048 -2048 1:0.39044 2:-0.934692 
-0 -63.3915938506935 -0.6121784745952981 1:0.133109 2:0.0893391 
-25.9557965012311 -0 -0 1:0.0717782 2:-0.26681 
-2048 -0 -0 1:0.0761095 2:-0.928777 
